{"learner":{"attributes":{"scikit_learn":"{\"_estimator_type\": \"classifier\"}"},"feature_names":[],"feature_types":[],"gradient_booster":{"model":{"cats":{"enc":[],"feature_segments":[],"sorted_idx":[]},"gbtree_model_param":{"num_parallel_tree":"1","num_trees":"300"},"iteration_indptr":[0,1,2,3,4,5,6,7,8,9,10,11,12,13,14,15,16,17,18,19,20,21,22,23,24,25,26,27,28,29,30,31,32,33,34,35,36,37,38,39,40,41,42,43,44,45,46,47,48,49,50,51,52,53,54,55,56,57,58,59,60,61,62,63,64,65,66,67,68,69,70,71,72,73,74,75,76,77,78,79,80,81,82,83,84,85,86,87,88,89,90,91,92,93,94,95,96,97,98,99,100,101,102,103,104,105,106,107,108,109,110,111,112,113,114,115,116,117,118,119,120,121,122,123,124,125,126,127,128,129,130,131,132,133,134,135,136,137,138,139,140,141,142,143,144,145,146,147,148,149,150,151,152,153,154,155,156,157,158,159,160,161,162,163,164,165,166,167,168,169,170,171,172,173,174,175,176,177,178,179,180,181,182,183,184,185,186,187,188,189,190,191,192,193,194,195,196,197,198,199,200,201,202,203,204,205,206,207,208,209,210,211,212,213,214,215,216,217,218,219,220,221,222,223,224,225,226,227,228,229,230,231,232,233,234,235,236,237,238,239,240,241,242,243,244,245,246,247,248,249,250,251,252,253,254,255,256,257,258,259,260,261,262,263,264,265,266,267,268,269,270,271,272,273,274,275,276,277,278,279,280,281,282,283,284,285,286,287,288,289,290,291,292,293,294,295,296,297,298,299,300],"tree_info":[0,0,0,0,0,0,0,0,0,0,0,0,0,0,0,0,0,0,0,0,0,0,0,0,0,0,0,0,0,0,0,0,0,0,0,0,0,0,0,0,0,0,0,0,0,0,0,0,0,0,0,0,0,0,0,0,0,0,0,0,0,0,0,0,0,0,0,0,0,0,0,0,0,0,0,0,0,0,0,0,0,0,0,0,0,0,0,0,0,0,0,0,0,0,0,0,0,0,0,0,0,0,0,0,0,0,0,0,0,0,0,0,0,0,0,0,0,0,0,0,0,0,0,0,0,0,0,0,0,0,0,0,0,0,0,0,0,0,0,0,0,0,0,0,0,0,0,0,0,0,0,0,0,0,0,0,0,0,0,0,0,0,0,0,0,0,0,0,0,0,0,0,0,0,0,0,0,0,0,0,0,0,0,0,0,0,0,0,0,0,0,0,0,0,0,0,0,0,0,0,0,0,0,0,0,0,0,0,0,0,0,0,0,0,0,0,0,0,0,0,0,0,0,0,0,0,0,0,0,0,0,0,0,0,0,0,0,0,0,0,0,0,0,0,0,0,0,0,0,0,0,0,0,0,0,0,0,0,0,0,0,0,0,0,0,0,0,0,0,0,0,0,0,0,0,0,0,0,0,0,0,0,0,0,0,0,0,0,0,0,0,0,0,0,0,0,0,0,0,0],"trees":[{"base_weights":[2.9537752E-3,-1.7660885E-1,7.3474616E-1,9.2087847E-1,-2.1461728E-1,6.0375226E-1,1.2772338E0,1.2170591E0,6.2285215E-1,-3.374188E-1,1.404359E-1,5.6235355E-1,8.435447E-1,1.2056912E0,8.5761316E-2,7.695503E-2,4.415422E-2,5.874442E-2,2.2461718E-2,8.759029E-3,-2.1607673E-2,4.5741603E-2,6.3099386E-3,1.04474E-2,3.0332157E-2,-3.8139706E-3,4.3863073E-2,6.150959E-2,3.0000893E-2],"categories":[],"categories_nodes":[],"categories_segments":[],"categories_sizes":[],"default_left":[0,0,0,0,0,0,0,0,0,0,0,0,0,0,0,0,0,0,0,0,0,0,0,0,0,0,0,0,0],"id":0,"left_children":[1,3,5,7,9,11,13,15,17,19,21,23,25,27,-1,-1,-1,-1,-1,-1,-1,-1,-1,-1,-1,-1,-1,-1,-1],"loss_changes":[3.2337952E3,8.245043E2,3.4379907E2,5.764557E1,8.328438E2,3.8317017E1,2.7456299E1,3.4220062E1,3.1277344E1,6.8925964E2,5.4009476E1,5.2078125E1,1.7847015E1,1.1330444E1,0E0,0E0,0E0,0E0,0E0,0E0,0E0,0E0,0E0,0E0,0E0,0E0,0E0,0E0,0E0],"parents":[2147483647,0,0,1,1,2,2,3,3,4,4,5,5,6,6,7,7,8,8,9,9,10,10,11,11,12,12,13,13],"right_children":[2,4,6,8,10,12,14,16,18,20,22,24,26,28,-1,-1,-1,-1,-1,-1,-1,-1,-1,-1,-1,-1,-1,-1,-1],"split_conditions":[1.1072372E0,2.00001E0,3.5215142E0,8.242055E-1,3.0247825E-1,2.7167552E0,7.545309E0,2.00001E0,2.00001E0,2.00001E0,2.00001E0,2.00001E0,2.00001E0,1.5725968E0,8.5761316E-2,7.695503E-2,4.415422E-2,5.874442E-2,2.2461718E-2,8.759029E-3,-2.1607673E-2,4.5741603E-2,6.3099386E-3,1.04474E-2,3.0332157E-2,-3.8139706E-3,4.3863073E-2,6.150959E-2,3.0000893E-2],"split_indices":[6,31,6,7,6,6,6,177,102,36,38,54,123,2,0,0,0,0,0,0,0,0,0,0,0,0,0,0,0],"split_type":[0,0,0,0,0,0,0,0,0,0,0,0,0,0,0,0,0,0,0,0,0,0,0,0,0,0,0,0,0],"sum_hessian":[2.4607844E4,1.9760016E4,4.8478296E3,6.606493E2,1.9099365E4,3.906616E3,9.412135E2,3.2980402E2,3.3084528E2,1.419115E4,4.908215E3,3.3343123E3,5.723036E2,8.1228577E2,1.2892773E2,1.6606464E2,1.6373938E2,7.777722E1,2.5306804E2,2.2134656E3,1.1977685E4,8.746557E1,4.8207495E3,3.7196515E2,2.9623472E3,2.0191753E1,5.521119E2,7.797139E2,3.2571857E1],"tree_param":{"num_deleted":"0","num_feature":"179","num_nodes":"29","size_leaf_vector":"1"}},{"base_weights":[1.6177911E-3,-2.999598E-1,4.431055E-1,-5.740401E-1,7.938167E-2,1.6781506E-1,7.236366E-1,-6.632021E-1,-3.4170243E-1,6.886655E-1,5.030154E-2,-2.0902897E-3,3.5479605E-1,6.1211383E-1,1.1984227E0,-2.3064477E-2,-3.822714E-2,-3.0900797E-2,-1.1425222E-2,4.187749E-2,-1.8718343E-2,5.6882077E-3,-8.888105E-3,-1.383891E-2,4.965323E-3,4.02879E-2,1.6207172E-2,4.5890417E-2,2.8435452E-2,5.751747E-2,8.203749E-2],"categories":[],"categories_nodes":[],"categories_segments":[],"categories_sizes":[],"default_left":[0,0,0,0,0,0,0,0,0,0,0,0,0,0,0,0,0,0,0,0,0,0,0,0,0,0,0,0,0,0,0],"id":1,"left_children":[1,3,5,7,9,11,13,15,17,19,21,23,25,27,29,-1,-1,-1,-1,-1,-1,-1,-1,-1,-1,-1,-1,-1,-1,-1,-1],"loss_changes":[3.2818623E3,1.5227043E3,7.724647E2,1.7590454E2,1.08822464E2,1.6044969E2,2.6160718E2,1.2535132E2,7.3675934E1,4.4596985E1,8.4908134E1,7.3754486E1,3.2975555E1,5.27406E1,1.8130005E1,0E0,0E0,0E0,0E0,0E0,0E0,0E0,0E0,0E0,0E0,0E0,0E0,0E0,0E0,0E0,0E0],"parents":[2147483647,0,0,1,1,2,2,3,3,4,4,5,5,6,6,7,7,8,8,9,9,10,10,11,11,12,12,13,13,14,14],"right_children":[2,4,6,8,10,12,14,16,18,20,22,24,26,28,30,-1,-1,-1,-1,-1,-1,-1,-1,-1,-1,-1,-1,-1,-1,-1,-1],"split_conditions":[3.0247825E-1,2.00001E0,1.1072372E0,2.0825832E-1,2.00001E0,2.00001E0,3.5215142E0,2.00001E0,-1.1781656E-1,1.5553176E0,2.00001E0,-3.5349044E-1,2.00001E0,2.00001E0,8.350068E0,-2.3064477E-2,-3.822714E-2,-3.0900797E-2,-1.1425222E-2,4.187749E-2,-1.8718343E-2,5.6882077E-3,-8.888105E-3,-1.383891E-2,4.965323E-3,4.02879E-2,1.6207172E-2,4.5890417E-2,2.8435452E-2,5.751747E-2,8.203749E-2],"split_indices":[6,27,6,0,38,27,6,131,3,0,120,1,30,132,6,0,0,0,0,0,0,0,0,0,0,0,0,0,0,0,0],"split_type":[0,0,0,0,0,0,0,0,0,0,0,0,0,0,0,0,0,0,0,0,0,0,0,0,0,0,0,0,0,0,0],"sum_hessian":[2.4647193E4,1.4644169E4,1.0003024E4,8.501317E3,6.1428516E3,5.0494766E3,4.953548E3,6.1422944E3,2.3590232E3,2.787991E2,5.8640522E3,2.6460554E3,2.403421E3,4.013179E3,9.403687E2,2.054477E3,4.0878171E3,6.842722E2,1.674751E3,2.4473463E2,3.4064476E1,4.5878936E3,1.2761588E3,7.129406E2,1.9331147E3,1.5135777E2,2.2520632E3,4.9646866E2,3.5167102E3,8.514332E2,8.893545E1],"tree_param":{"num_deleted":"0","num_feature":"179","num_nodes":"31","size_leaf_vector":"1"}},{"base_weights":[9.644613E-3,-1.6260657E-1,7.042932E-1,-4.1401815E-1,1.6175005E-1,5.484436E-1,1.0457368E0,-5.402673E-1,-3.2744668E-3,9.0845126E-1,9.670987E-2,4.1064754E-1,6.7459667E-1,8.405641E-1,1.1736891E0,-3.839811E-2,-2.2819566E-2,-1.8517612E-2,3.564116E-3,5.7192206E-2,3.451455E-2,7.2870665E-4,1.49053205E-2,1.6188903E-2,3.3091884E-2,-3.4481522E-3,3.4834735E-2,4.4204842E-2,1.8353997E-2,5.4638512E-2,7.04474E-2],"categories":[],"categories_nodes":[],"categories_segments":[],"categories_sizes":[],"default_left":[0,0,0,0,0,0,0,0,0,0,0,0,0,0,0,0,0,0,0,0,0,0,0,0,0,0,0,0,0,0,0],"id":2,"left_children":[1,3,5,7,9,11,13,15,17,19,21,23,25,27,29,-1,-1,-1,-1,-1,-1,-1,-1,-1,-1,-1,-1,-1,-1,-1,-1],"loss_changes":[2.954604E3,1.6135975E3,2.6051587E2,5.780333E2,4.1954694E2,5.832013E1,3.935144E1,1.6248486E2,7.1777245E1,3.4757263E1,1.3149312E2,3.4996704E1,2.8937866E1,1.1912994E1,1.6428223E1,0E0,0E0,0E0,0E0,0E0,0E0,0E0,0E0,0E0,0E0,0E0,0E0,0E0,0E0,0E0,0E0],"parents":[2147483647,0,0,1,1,2,2,3,3,4,4,5,5,6,6,7,7,8,8,9,9,10,10,11,11,12,12,13,13,14,14],"right_children":[2,4,6,8,10,12,14,16,18,20,22,24,26,28,30,-1,-1,-1,-1,-1,-1,-1,-1,-1,-1,-1,-1,-1,-1,-1,-1],"split_conditions":[1.1072372E0,2.00001E0,2.7167552E0,3.0247825E-1,2.00001E0,2.00001E0,3.5215142E0,-7.235778E-1,2.00001E0,8.242055E-1,3.0247825E-1,8.3009917E-1,2.00001E0,2.00001E0,5.935791E0,-3.839811E-2,-2.2819566E-2,-1.8517612E-2,3.564116E-3,5.7192206E-2,3.451455E-2,7.2870665E-4,1.49053205E-2,1.6188903E-2,3.3091884E-2,-3.4481522E-3,3.4834735E-2,4.4204842E-2,1.8353997E-2,5.4638512E-2,7.04474E-2],"split_indices":[6,27,6,6,31,27,6,7,126,7,6,5,46,74,6,0,0,0,0,0,0,0,0,0,0,0,0,0,0,0,0],"split_type":[0,0,0,0,0,0,0,0,0,0,0,0,0,0,0,0,0,0,0,0,0,0,0,0,0,0,0,0,0,0,0],"sum_hessian":[2.469093E4,1.9785508E4,4.9054224E3,1.1145927E4,8.63958E3,3.369873E3,1.5355496E3,8.525234E3,2.6206926E3,6.912009E2,7.948379E3,1.6126465E3,1.7572266E3,5.927071E2,9.428424E2,2.2928281E3,6.2324062E3,4.417558E2,2.1789368E3,3.304285E2,3.6077246E2,5.646595E3,2.3017837E3,1.1999536E3,4.1269287E2,5.0655037E1,1.7065715E3,5.42007E2,5.070008E1,7.057425E2,2.3709991E2],"tree_param":{"num_deleted":"0","num_feature":"179","num_nodes":"31","size_leaf_vector":"1"}},{"base_weights":[-7.392368E-3,-1.690708E-1,6.461013E-1,-3.9089558E-1,1.21151105E-1,5.355303E-1,1.1026402E0,-5.126043E-1,1.2839453E-3,8.444079E-1,5.8107257E-2,7.973811E-1,5.004052E-1,1.0587583E0,7.703228E-2,-3.7850298E-2,-2.1265693E-2,-1.1896336E-2,5.905926E-3,5.3293962E-2,3.1427022E-2,-2.200472E-2,4.3126987E-3,4.413162E-2,-4.4147318E-4,2.0544829E-2,3.1058853E-2,3.7397806E-2,5.4744896E-2],"categories":[],"categories_nodes":[],"categories_segments":[],"categories_sizes":[],"default_left":[0,0,0,0,0,0,0,0,0,0,0,0,0,0,0,0,0,0,0,0,0,0,0,0,0,0,0,0,0],"id":3,"left_children":[1,3,5,7,9,11,13,15,17,19,21,23,25,27,-1,-1,-1,-1,-1,-1,-1,-1,-1,-1,-1,-1,-1,-1,-1],"loss_changes":[2.5899814E3,1.2651761E3,2.4483801E2,5.31657E2,3.881631E2,3.5617676E1,1.6570435E1,1.8102563E2,7.378346E1,3.196222E1,1.0987031E2,3.1725098E1,3.709851E1,8.885254E0,0E0,0E0,0E0,0E0,0E0,0E0,0E0,0E0,0E0,0E0,0E0,0E0,0E0,0E0,0E0],"parents":[2147483647,0,0,1,1,2,2,3,3,4,4,5,5,6,6,7,7,8,8,9,9,10,10,11,11,12,12,13,13],"right_children":[2,4,6,8,10,12,14,16,18,20,22,24,26,28,-1,-1,-1,-1,-1,-1,-1,-1,-1,-1,-1,-1,-1,-1,-1],"split_conditions":[1.1072372E0,2.00001E0,3.5215142E0,3.0247825E-1,2.00001E0,2.00001E0,8.350068E0,-7.235778E-1,-4.6527135E-1,8.242055E-1,-1.2395055E0,1.3224689E0,1.9119962E0,2.00001E0,7.703228E-2,-3.7850298E-2,-2.1265693E-2,-1.1896336E-2,5.905926E-3,5.3293962E-2,3.1427022E-2,-2.200472E-2,4.3126987E-3,4.413162E-2,-4.4147318E-4,2.0544829E-2,3.1058853E-2,3.7397806E-2,5.4744896E-2],"split_indices":[6,27,6,6,31,132,6,7,0,7,7,4,6,36,0,0,0,0,0,0,0,0,0,0,0,0,0,0,0],"split_type":[0,0,0,0,0,0,0,0,0,0,0,0,0,0,0,0,0,0,0,0,0,0,0,0,0,0,0,0,0],"sum_hessian":[2.4511346E4,1.9650443E4,4.8609014E3,1.1137438E4,8.513005E3,3.914907E3,9.4599445E2,8.499425E3,2.6380134E3,6.8156024E2,7.831445E3,4.6047293E2,3.454434E3,8.62956E2,8.3038445E1,2.2347507E3,6.2646743E3,8.6531165E2,1.7727018E3,3.344699E2,3.4709033E2,4.1800742E2,7.4134375E3,4.163517E2,4.41212E1,1.986538E3,1.4678961E3,9.215069E1,7.708053E2],"tree_param":{"num_deleted":"0","num_feature":"179","num_nodes":"29","size_leaf_vector":"1"}},{"base_weights":[6.117718E-3,-2.0177944E-1,2.6205721E-1,-2.8904328E-1,3.6028713E-1,8.6176336E-1,2.1497191E-1,-4.885267E-1,-2.0139877E-1,2.6164326E-1,9.3437195E-1,9.0812826E-1,8.165587E-2,1.6778778E-1,4.9658206E-1,-3.726286E-2,-1.9409044E-2,-1.7152114E-2,-3.609813E-3,-4.895381E-2,1.4081913E-2,1.773684E-2,5.1787704E-2,1.3750821E-2,4.7986895E-2,1.933051E-2,-9.604196E-3,3.514065E-2,7.1538957E-3,-1.6900403E-2,2.64445E-2],"categories":[],"categories_nodes":[],"categories_segments":[],"categories_sizes":[],"default_left":[0,0,0,0,0,0,0,0,0,0,0,0,0,0,0,0,0,0,0,0,0,0,0,0,0,0,0,0,0,0,0],"id":4,"left_children":[1,3,5,7,9,11,13,15,17,19,21,23,25,27,29,-1,-1,-1,-1,-1,-1,-1,-1,-1,-1,-1,-1,-1,-1,-1,-1],"loss_changes":[1.3122887E3,6.6758435E2,3.1195563E2,2.0586505E2,1.0335004E2,2.9020447E1,1.3612436E2,9.232977E1,1.4978772E2,3.9037926E1,1.5372665E1,2.4541626E1,3.9330454E0,1.1599104E2,3.9830444E1,0E0,0E0,0E0,0E0,0E0,0E0,0E0,0E0,0E0,0E0,0E0,0E0,0E0,0E0,0E0,0E0],"parents":[2147483647,0,0,1,1,2,2,3,3,4,4,5,5,6,6,7,7,8,8,9,9,10,10,11,11,12,12,13,13,14,14],"right_children":[2,4,6,8,10,12,14,16,18,20,22,24,26,28,30,-1,-1,-1,-1,-1,-1,-1,-1,-1,-1,-1,-1,-1,-1,-1,-1],"split_conditions":[2.00001E0,8.3009917E-1,2.00001E0,-3.5349044E-1,3.9310079E0,8.3009917E-1,8.3009917E-1,-8.0203617E-1,-1.1781656E-1,2.00001E0,2.00001E0,2.00001E0,1.2966947E-1,2.00001E0,-1.7285275E0,-3.726286E-2,-1.9409044E-2,-1.7152114E-2,-3.609813E-3,-4.895381E-2,1.4081913E-2,1.773684E-2,5.1787704E-2,1.3750821E-2,4.7986895E-2,1.933051E-2,-9.604196E-3,3.514065E-2,7.1538957E-3,-1.6900403E-2,2.64445E-2],"split_indices":[27,5,31,1,5,5,5,0,3,11,151,165,3,38,1,0,0,0,0,0,0,0,0,0,0,0,0,0,0,0,0],"split_type":[0,0,0,0,0,0,0,0,0,0,0,0,0,0,0,0,0,0,0,0,0,0,0,0,0,0,0,0,0,0,0],"sum_hessian":[2.4660871E4,1.3607689E4,1.1053182E4,1.1779366E4,1.8283239E3,8.0339325E2,1.0249788E4,3.5942021E3,8.185164E3,1.5614745E3,2.6684937E2,7.5816815E2,4.5225082E1,8.780243E3,1.469545E3,1.0082393E3,2.585963E3,3.9038047E3,4.2813594E3,2.4004337E1,1.5374701E3,4.0395256E1,2.264541E2,5.762254E1,7.005456E2,2.1197784E1,2.4027296E1,3.8639813E2,8.393845E3,5.4415054E1,1.4151299E3],"tree_param":{"num_deleted":"0","num_feature":"179","num_nodes":"31","size_leaf_vector":"1"}},{"base_weights":[-1.9223592E-3,-1.9655935E-1,2.391497E-1,-2.7646756E-1,3.1827107E-1,7.845815E-1,1.986931E-1,-5.3292936E-1,-1.9423573E-1,2.3915717E-1,8.4411395E-1,1.0454777E0,5.3834355E-1,1.5956646E-1,4.4188225E-1,-4.5684874E-2,-2.4004215E-2,-2.2372067E-2,-4.622532E-3,1.5214445E-2,-4.459146E-3,1.2682319E-2,4.7120344E-2,1.0545656E-2,5.582614E-2,5.0559532E-2,1.9004628E-2,-1.3086753E-2,9.172626E-3,-1.8267835E-2,2.3625715E-2],"categories":[],"categories_nodes":[],"categories_segments":[],"categories_sizes":[],"default_left":[0,0,0,0,0,0,0,0,0,0,0,0,0,0,0,0,0,0,0,0,0,0,0,0,0,0,0,0,0,0,0],"id":5,"left_children":[1,3,5,7,9,11,13,15,17,19,21,23,25,27,29,-1,-1,-1,-1,-1,-1,-1,-1,-1,-1,-1,-1,-1,-1,-1,-1],"loss_changes":[1.1516007E3,5.5873236E2,2.417735E2,2.4781006E2,7.571956E1,4.805121E1,9.7060486E1,5.697937E1,2.2940839E2,3.398072E1,1.3589691E1,2.1486877E1,2.8900612E1,8.855243E1,3.51416E1,0E0,0E0,0E0,0E0,0E0,0E0,0E0,0E0,0E0,0E0,0E0,0E0,0E0,0E0,0E0,0E0],"parents":[2147483647,0,0,1,1,2,2,3,3,4,4,5,5,6,6,7,7,8,8,9,9,10,10,11,11,12,12,13,13,14,14],"right_children":[2,4,6,8,10,12,14,16,18,20,22,24,26,28,30,-1,-1,-1,-1,-1,-1,-1,-1,-1,-1,-1,-1,-1,-1,-1,-1],"split_conditions":[2.00001E0,8.3009917E-1,2.00001E0,-7.235778E-1,3.9310079E0,8.242055E-1,8.3009917E-1,2.00001E0,-3.5349044E-1,2.00001E0,2.00001E0,2.00001E0,2.00001E0,-1.2395055E0,-1.7285275E0,-4.5684874E-2,-2.4004215E-2,-2.2372067E-2,-4.622532E-3,1.5214445E-2,-4.459146E-3,1.2682319E-2,4.7120344E-2,1.0545656E-2,5.582614E-2,5.0559532E-2,1.9004628E-2,-1.3086753E-2,9.172626E-3,-1.8267835E-2,2.3625715E-2],"split_indices":[27,5,31,7,5,7,5,139,1,53,22,165,102,7,1,0,0,0,0,0,0,0,0,0,0,0,0,0,0,0,0],"split_type":[0,0,0,0,0,0,0,0,0,0,0,0,0,0,0,0,0,0,0,0,0,0,0,0,0,0,0,0,0,0,0],"sum_hessian":[2.4541113E4,1.3578375E4,1.0962737E4,1.1754405E4,1.8239697E3,7.5572595E2,1.0207012E4,2.8525354E3,8.90187E3,1.5867026E3,2.3726712E2,3.6536508E2,3.9036087E2,8.793831E3,1.4131805E3,3.4565735E2,2.5068782E3,2.5514246E3,6.3504453E3,1.3241156E3,2.6258704E2,3.4371323E1,2.028958E2,2.8974195E1,3.3639087E2,9.6533424E1,2.9382742E2,4.712892E2,8.322542E3,5.1265472E1,1.361915E3],"tree_param":{"num_deleted":"0","num_feature":"179","num_nodes":"31","size_leaf_vector":"1"}},{"base_weights":[3.9129714E-3,-1.8533924E-1,2.3674507E-1,-3.7761202E-1,-8.676195E-2,7.917071E-1,1.9476259E-1,-6.724255E-1,-2.9241636E-1,-3.6066377E-1,-2.6658425E-2,1.0160275E0,5.639944E-1,1.3257512E0,1.8673109E-1,3.524908E-3,-3.664356E-2,2.3730015E-2,-1.5868071E-2,3.061591E-2,-2.0111704E-2,-8.044201E-3,4.312649E-3,6.533737E-2,3.7558354E-2,3.3100583E-2,4.684105E-3,4.8242804E-2,7.669838E-2,3.165948E-2,8.416938E-3],"categories":[],"categories_nodes":[],"categories_segments":[],"categories_sizes":[],"default_left":[0,0,0,0,0,0,0,0,0,0,0,0,0,0,0,0,0,0,0,0,0,0,0,0,0,0,0,0,0,0,0],"id":6,"left_children":[1,3,5,7,9,11,13,15,17,19,21,23,25,27,29,-1,-1,-1,-1,-1,-1,-1,-1,-1,-1,-1,-1,-1,-1,-1,-1],"loss_changes":[1.0817766E3,2.5664746E2,2.5631E2,1.1508014E2,1.4739268E2,3.895468E1,9.272089E1,4.6224426E1,6.8311584E1,6.5412506E1,1.11312004E2,2.8938507E1,1.7744041E1,3.9306488E0,8.3352844E1,0E0,0E0,0E0,0E0,0E0,0E0,0E0,0E0,0E0,0E0,0E0,0E0,0E0,0E0,0E0,0E0],"parents":[2147483647,0,0,1,1,2,2,3,3,4,4,5,5,6,6,7,7,8,8,9,9,10,10,11,11,12,12,13,13,14,14],"right_children":[2,4,6,8,10,12,14,16,18,20,22,24,26,28,30,-1,-1,-1,-1,-1,-1,-1,-1,-1,-1,-1,-1,-1,-1,-1,-1],"split_conditions":[2.00001E0,-2.0765004E-1,2.00001E0,-8.0203617E-1,2.00001E0,2.00001E0,2.00001E0,2.00001E0,2.00001E0,2.00001E0,-1.1781656E-1,8.242055E-1,2.00001E0,2.00001E0,2.00001E0,3.524908E-3,-3.664356E-2,2.3730015E-2,-1.5868071E-2,3.061591E-2,-2.0111704E-2,-8.044201E-3,4.312649E-3,6.533737E-2,3.7558354E-2,3.3100583E-2,4.684105E-3,4.8242804E-2,7.669838E-2,3.165948E-2,8.416938E-3],"split_indices":[27,7,31,0,22,177,35,105,147,147,3,7,10,148,38,0,0,0,0,0,0,0,0,0,0,0,0,0,0,0,0],"split_type":[0,0,0,0,0,0,0,0,0,0,0,0,0,0,0,0,0,0,0,0,0,0,0,0,0,0,0,0,0,0,0],"sum_hessian":[2.454813E4,1.3541466E4,1.1006665E4,4.5886255E3,8.952841E3,7.728314E2,1.0233833E4,1.0271957E3,3.5614297E3,1.6101442E3,7.342697E3,3.8757175E2,3.8525967E2,7.10043E1,1.0162829E4,7.727401E1,9.4992163E2,1.1160943E2,3.4498203E3,6.541157E1,1.5447327E3,3.354521E3,3.9881755E3,1.8289076E2,2.0468098E2,3.184784E2,6.678128E1,2.8039015E1,4.2965286E1,4.0078107E2,9.762048E3],"tree_param":{"num_deleted":"0","num_feature":"179","num_nodes":"31","size_leaf_vector":"1"}},{"base_weights":[-1.4363466E-3,-1.4717576E-1,5.954206E-1,-3.3198756E-1,9.428884E-2,4.6712372E-1,8.8851523E-1,-4.3478367E-1,2.697468E-3,6.8869555E-1,4.5692336E-2,5.132127E-1,1.3593818E-1,4.640557E-1,9.480756E-1,-1.2543122E-2,-2.6268631E-2,-1.8416157E-2,3.1387587E-3,4.5122605E-2,2.442132E-2,-2.0754554E-3,1.2918499E-2,4.9136292E-2,2.4367126E-2,-3.514164E-2,9.977151E-3,4.773287E-2,1.0562351E-2,-9.70478E-3,4.8462853E-2],"categories":[],"categories_nodes":[],"categories_segments":[],"categories_sizes":[],"default_left":[0,0,0,0,0,0,0,0,0,0,0,0,0,0,0,0,0,0,0,0,0,0,0,0,0,0,0,0,0,0,0],"id":7,"left_children":[1,3,5,7,9,11,13,15,17,19,21,23,25,27,29,-1,-1,-1,-1,-1,-1,-1,-1,-1,-1,-1,-1,-1,-1,-1,-1],"loss_changes":[2.1290059E3,8.77901E2,1.8020984E2,3.8338208E2,2.4635321E2,5.0959473E1,3.6504517E1,1.419054E2,5.8409454E1,2.7152435E1,1.462621E2,3.516266E1,2.2001099E1,2.2344612E1,3.1168823E1,0E0,0E0,0E0,0E0,0E0,0E0,0E0,0E0,0E0,0E0,0E0,0E0,0E0,0E0,0E0,0E0],"parents":[2147483647,0,0,1,1,2,2,3,3,4,4,5,5,6,6,7,7,8,8,9,9,10,10,11,11,12,12,13,13,14,14],"right_children":[2,4,6,8,10,12,14,16,18,20,22,24,26,28,30,-1,-1,-1,-1,-1,-1,-1,-1,-1,-1,-1,-1,-1,-1,-1,-1],"split_conditions":[1.1072372E0,2.00001E0,2.7167552E0,3.0247825E-1,2.00001E0,2.00001E0,2.00001E0,2.00001E0,-8.0203617E-1,8.242055E-1,3.0247825E-1,2.00001E0,2.00001E0,2.00001E0,2.00001E0,-1.2543122E-2,-2.6268631E-2,-1.8416157E-2,3.1387587E-3,4.5122605E-2,2.442132E-2,-2.0754554E-3,1.2918499E-2,4.9136292E-2,2.4367126E-2,-3.514164E-2,9.977151E-3,4.773287E-2,1.0562351E-2,-9.70478E-3,4.8462853E-2],"split_indices":[6,27,6,6,31,53,36,131,0,7,6,20,105,131,161,0,0,0,0,0,0,0,0,0,0,0,0,0,0,0,0],"split_type":[0,0,0,0,0,0,0,0,0,0,0,0,0,0,0,0,0,0,0,0,0,0,0,0,0,0,0,0,0,0,0],"sum_hessian":[2.4473379E4,1.9670924E4,4.8024556E3,1.1142397E4,8.528526E3,3.3421035E3,1.4603522E3,8.52401E3,2.618388E3,6.4356824E2,7.8849575E3,2.9333396E3,4.087638E2,1.8078323E2,1.2795688E3,2.814186E3,5.7098237E3,3.6418253E2,2.2542053E3,3.0960565E2,3.3396262E2,5.592672E3,2.2922856E3,1.5125491E2,2.7820847E3,2.8103731E1,3.8066006E2,6.0534157E1,1.2024908E2,2.3148851E1,1.25642E3],"tree_param":{"num_deleted":"0","num_feature":"179","num_nodes":"31","size_leaf_vector":"1"}},{"base_weights":[-3.9545856E-3,-2.7452144E-1,5.7901993E-2,3.3153272E-1,-3.3532295E-1,3.246526E-2,5.191679E-1,-2.3811609E-2,4.181807E-1,8.461556E-1,-3.6881483E-1,-1.762432E-1,1.0067327E-1,5.5206513E-1,-1.976154E-2,1.6182328E-2,5.0737113E-2,6.6637725E-2,1.9133093E-2,-2.0955265E-2,8.117686E-3,-5.853996E-3,-2.36466E-2,2.9780809E-2,3.9941096E-3,-1.2389794E-2,2.9466629E-2],"categories":[],"categories_nodes":[],"categories_segments":[],"categories_sizes":[],"default_left":[0,0,0,0,0,0,0,0,0,0,0,0,0,0,0,0,0,0,0,0,0,0,0,0,0,0,0],"id":8,"left_children":[1,3,5,7,9,11,13,-1,15,17,19,21,23,25,-1,-1,-1,-1,-1,-1,-1,-1,-1,-1,-1,-1,-1],"loss_changes":[4.0926736E2,1.677854E2,2.3351347E2,2.9272343E1,1.6397028E2,2.6856357E2,3.1507477E1,0E0,2.0857925E1,2.5271965E1,1.0752289E2,8.1512054E1,1.4626639E2,3.0087616E1,0E0,0E0,0E0,0E0,0E0,0E0,0E0,0E0,0E0,0E0,0E0,0E0,0E0],"parents":[2147483647,0,0,1,1,2,2,3,3,4,4,5,5,6,6,8,8,9,9,10,10,11,11,12,12,13,13],"right_children":[2,4,6,8,10,12,14,-1,16,18,20,22,24,26,-1,-1,-1,-1,-1,-1,-1,-1,-1,-1,-1,-1,-1],"split_conditions":[-7.235778E-1,2.00001E0,1.8637354E0,-9.8401767E-1,2.00001E0,-4.6527135E-1,3.755176E0,-2.3811609E-2,2.00001E0,2.00001E0,8.3009917E-1,2.00001E0,2.00001E0,2.00001E0,-1.976154E-2,1.6182328E-2,5.0737113E-2,6.6637725E-2,1.9133093E-2,-2.0955265E-2,8.117686E-3,-5.853996E-3,-2.36466E-2,2.9780809E-2,3.9941096E-3,-1.2389794E-2,2.9466629E-2],"split_indices":[7,36,5,3,31,0,4,0,47,177,5,53,31,135,0,0,0,0,0,0,0,0,0,0,0,0,0],"split_type":[0,0,0,0,0,0,0,0,0,0,0,0,0,0,0,0,0,0,0,0,0,0,0,0,0,0,0],"sum_hessian":[2.4451863E4,4.549306E3,1.9902559E4,4.1438348E2,4.134923E3,1.8863396E4,1.0391608E3,3.970863E1,3.7467484E2,1.1331439E2,4.0216082E3,4.645902E3,1.4217495E4,1.00345575E3,3.570499E1,3.2475504E2,4.9919807E1,5.436444E1,5.8949955E1,3.6739714E3,3.4763672E2,3.8746462E3,7.7125586E2,5.720435E2,1.3645451E4,4.442055E1,9.590352E2],"tree_param":{"num_deleted":"0","num_feature":"179","num_nodes":"27","size_leaf_vector":"1"}},{"base_weights":[-7.6085753E-3,-1.5350524E-1,5.8072096E-1,-3.2729024E-1,7.350835E-2,4.856119E-1,9.9526036E-1,-4.3366063E-1,1.5741056E-2,6.251796E-1,2.7929539E-2,4.9355498E-1,-4.0785108E-2,9.401646E-1,1.362674E0,-3.174625E-2,-1.8781936E-2,2.3757255E-2,-1.2590497E-3,4.3033544E-2,2.027019E-2,-2.4876262E-3,1.08350245E-2,3.3397064E-2,2.274762E-2,1.6740177E-2,4.8010148E-2,5.2142482E-2,7.18117E-2],"categories":[],"categories_nodes":[],"categories_segments":[],"categories_sizes":[],"default_left":[0,0,0,0,0,0,0,0,0,0,0,0,0,0,0,0,0,0,0,0,0,0,0,0,0,0,0,0,0],"id":9,"left_children":[1,3,5,7,9,11,13,15,17,19,21,23,-1,25,27,-1,-1,-1,-1,-1,-1,-1,-1,-1,-1,-1,-1,-1,-1],"loss_changes":[2.096086E3,7.719882E2,1.9083044E2,4.0441528E2,2.133382E2,4.1219666E1,1.7030518E1,9.855444E1,4.9347935E1,3.3162354E1,1.1495812E2,2.6121582E1,0E0,9.259766E0,1.2250214E0,0E0,0E0,0E0,0E0,0E0,0E0,0E0,0E0,0E0,0E0,0E0,0E0,0E0,0E0],"parents":[2147483647,0,0,1,1,2,2,3,3,4,4,5,5,6,6,7,7,8,8,9,9,10,10,11,11,13,13,14,14],"right_children":[2,4,6,8,10,12,14,16,18,20,22,24,-1,26,28,-1,-1,-1,-1,-1,-1,-1,-1,-1,-1,-1,-1,-1,-1],"split_conditions":[1.1072372E0,2.00001E0,3.5215142E0,3.0247825E-1,2.00001E0,6.1878834E0,7.545309E0,2.00001E0,2.00001E0,8.242055E-1,3.0247825E-1,2.00001E0,-4.0785108E-2,2.00001E0,2.00001E0,-3.174625E-2,-1.8781936E-2,2.3757255E-2,-1.2590497E-3,4.3033544E-2,2.027019E-2,-2.4876262E-3,1.08350245E-2,3.3397064E-2,2.274762E-2,1.6740177E-2,4.8010148E-2,5.2142482E-2,7.18117E-2],"split_indices":[6,27,6,6,31,4,6,119,154,7,6,102,0,134,104,0,0,0,0,0,0,0,0,0,0,0,0,0,0],"split_type":[0,0,0,0,0,0,0,0,0,0,0,0,0,0,0,0,0,0,0,0,0,0,0,0,0,0,0,0,0],"sum_hessian":[2.4417814E4,1.956639E4,4.8514243E3,1.1082215E4,8.484176E3,3.9478325E3,9.0359204E2,8.458927E3,2.623288E3,6.464948E2,7.8376807E3,3.9244983E3,2.3334085E1,7.8885736E2,1.14734665E2,1.890676E3,6.568251E3,2.1369286E2,2.4095952E3,3.1068143E2,3.3581335E2,5.553195E3,2.2844858E3,7.0833057E2,3.2161677E3,2.5843037E1,7.6301434E2,2.42925E1,9.044217E1],"tree_param":{"num_deleted":"0","num_feature":"179","num_nodes":"29","size_leaf_vector":"1"}},{"base_weights":[-2.4060553E-3,-2.1909727E-1,3.226663E-1,-3.9509445E-1,2.2814358E-2,1.8854572E-1,6.956305E-1,-5.101461E-1,-2.3350786E-1,-2.181935E-1,1.1708479E-1,1.21151544E-1,3.439683E-1,5.501523E-1,9.571125E-1,-1.5543415E-2,-3.0155703E-2,-1.7868577E-2,-6.799848E-3,-5.485908E-2,-7.3061483E-3,-7.757315E-3,9.756008E-3,8.4902736E-4,1.177319E-2,2.6276037E-2,1.4560247E-2,2.836289E-2,-3.5673168E-2,2.7312888E-2,4.9972616E-2],"categories":[],"categories_nodes":[],"categories_segments":[],"categories_sizes":[],"default_left":[0,0,0,0,0,0,0,0,0,0,0,0,0,0,0,0,0,0,0,0,0,0,0,0,0,0,0,0,0,0,0],"id":10,"left_children":[1,3,5,7,9,11,13,15,17,19,21,23,25,27,29,-1,-1,-1,-1,-1,-1,-1,-1,-1,-1,-1,-1,-1,-1,-1,-1],"loss_changes":[1.7159579E3,6.223348E2,4.872622E2,1.5718188E2,1.3990468E2,7.503813E1,9.7492065E1,9.13595E1,4.247583E1,1.0952402E2,9.405998E1,5.9552147E1,2.0609802E1,3.6241333E1,1.5453918E1,0E0,0E0,0E0,0E0,0E0,0E0,0E0,0E0,0E0,0E0,0E0,0E0,0E0,0E0,0E0,0E0],"parents":[2147483647,0,0,1,1,2,2,3,3,4,4,5,5,6,6,7,7,8,8,9,9,10,10,11,11,12,12,13,13,14,14],"right_children":[2,4,6,8,10,12,14,16,18,20,22,24,26,28,30,-1,-1,-1,-1,-1,-1,-1,-1,-1,-1,-1,-1,-1,-1,-1,-1],"split_conditions":[3.0247825E-1,2.00001E0,1.9119962E0,8.242055E-1,2.00001E0,1.1072372E0,3.5215142E0,2.00001E0,5.392794E-2,2.00001E0,2.00001E0,2.00001E0,2.00001E0,4.566078E0,2.00001E0,-1.5543415E-2,-3.0155703E-2,-1.7868577E-2,-6.799848E-3,-5.485908E-2,-7.3061483E-3,-7.757315E-3,9.756008E-3,8.4902736E-4,1.177319E-2,2.6276037E-2,1.4560247E-2,2.836289E-2,-3.5673168E-2,2.7312888E-2,4.9972616E-2],"split_indices":[6,27,6,7,39,6,6,131,1,136,119,27,119,4,36,0,0,0,0,0,0,0,0,0,0,0,0,0,0,0,0],"split_type":[0,0,0,0,0,0,0,0,0,0,0,0,0,0,0,0,0,0,0,0,0,0,0,0,0,0,0,0,0,0,0],"sum_hessian":[2.4358445E4,1.4615901E4,9.742544E3,8.460227E3,6.155675E3,7.1668125E3,2.575731E3,4.940426E3,3.5198005E3,1.7304258E3,4.425249E3,5.0003467E3,2.1664658E3,1.6569653E3,9.187657E2,1.5730088E3,3.3674172E3,1.5492252E3,1.9705754E3,1.3005257E2,1.6003733E3,9.856748E2,3.4395742E3,2.6168242E3,2.3835227E3,4.8582855E2,1.6806372E3,1.6353783E3,2.1586964E1,8.713468E1,8.31631E2],"tree_param":{"num_deleted":"0","num_feature":"179","num_nodes":"31","size_leaf_vector":"1"}},{"base_weights":[3.492951E-3,-1.2417817E-1,5.27175E-1,-2.8927097E-1,8.842756E-2,4.3760785E-1,9.171049E-1,-3.884575E-1,2.8418023E-2,-1.0772472E-1,1.7066102E-1,3.6134413E-1,5.3779316E-1,8.783206E-1,6.678704E-2,-3.150174E-2,-1.6581224E-2,-2.2638923E-2,5.00131E-3,-5.0922066E-2,-2.3731182E-3,-5.4556012E-2,9.160449E-3,3.2591745E-2,1.6283123E-2,2.754207E-2,-1.9990047E-2,7.256085E-2,4.2831942E-2],"categories":[],"categories_nodes":[],"categories_segments":[],"categories_sizes":[],"default_left":[0,0,0,0,0,0,0,0,0,0,0,0,0,0,0,0,0,0,0,0,0,0,0,0,0,0,0,0,0],"id":11,"left_children":[1,3,5,7,9,11,13,15,17,19,21,23,25,27,-1,-1,-1,-1,-1,-1,-1,-1,-1,-1,-1,-1,-1,-1,-1],"loss_changes":[1.627949E3,6.871498E2,1.6628198E2,3.47248E2,1.3805545E2,2.9473938E1,1.3286804E1,1.1509033E2,9.042202E1,1.387199E2,9.5673965E1,2.2671814E1,2.0727509E1,8.917358E0,0E0,0E0,0E0,0E0,0E0,0E0,0E0,0E0,0E0,0E0,0E0,0E0,0E0,0E0,0E0],"parents":[2147483647,0,0,1,1,2,2,3,3,4,4,5,5,6,6,7,7,8,8,9,9,10,10,11,11,12,12,13,13],"right_children":[2,4,6,8,10,12,14,16,18,20,22,24,26,28,-1,-1,-1,-1,-1,-1,-1,-1,-1,-1,-1,-1,-1,-1,-1],"split_conditions":[1.1072372E0,2.00001E0,3.5215142E0,3.0247825E-1,2.00001E0,1.9119962E0,8.350068E0,2.00001E0,-8.0203617E-1,2.00001E0,2.00001E0,2.00001E0,4.566078E0,2.00001E0,6.678704E-2,-3.150174E-2,-1.6581224E-2,-2.2638923E-2,5.00131E-3,-5.0922066E-2,-2.3731182E-3,-5.4556012E-2,9.160449E-3,3.2591745E-2,1.6283123E-2,2.754207E-2,-1.9990047E-2,7.256085E-2,4.2831942E-2],"split_indices":[6,27,6,6,39,6,6,22,0,136,32,132,4,157,0,0,0,0,0,0,0,0,0,0,0,0,0,0,0],"split_type":[0,0,0,0,0,0,0,0,0,0,0,0,0,0,0,0,0,0,0,0,0,0,0,0,0,0,0,0,0],"sum_hessian":[2.4346984E4,1.9575367E4,4.771616E3,1.1018731E4,8.556637E3,3.882033E3,8.895831E2,8.396893E3,2.6218389E3,2.5274868E3,6.0291494E3,2.2067803E3,1.6752529E3,8.1699133E2,7.2591774E1,1.5972891E3,6.7996035E3,3.3893335E2,2.2829055E3,1.5587787E2,2.3716091E3,5.852096E1,5.9706284E3,2.3952179E2,1.9672584E3,1.6526656E3,2.258723E1,2.738788E1,7.8960345E2],"tree_param":{"num_deleted":"0","num_feature":"179","num_nodes":"29","size_leaf_vector":"1"}},{"base_weights":[-9.291906E-3,-2.201563E-1,3.0210346E-1,6.2019724E-1,-2.534011E-1,1.8548407E-1,6.3527817E-1,-2.9438935E-2,6.758335E-1,8.03232E-2,-3.1583837E-1,1.1504029E-1,3.4178266E-1,5.077259E-1,8.704489E-1,-2.966387E-2,2.8595105E-2,3.6032394E-2,1.1850287E-2,1.4190726E-2,-1.2040207E-3,3.0108828E-2,-1.693192E-2,3.2402586E-2,4.910675E-3,-2.8942043E-2,1.8107502E-2,-1.0941681E-2,2.6348991E-2,2.1997085E-2,4.5751568E-2],"categories":[],"categories_nodes":[],"categories_segments":[],"categories_sizes":[],"default_left":[0,0,0,0,0,0,0,0,0,0,0,0,0,0,0,0,0,0,0,0,0,0,0,0,0,0,0,0,0,0,0],"id":12,"left_children":[1,3,5,7,9,11,13,15,17,19,21,23,25,27,29,-1,-1,-1,-1,-1,-1,-1,-1,-1,-1,-1,-1,-1,-1,-1,-1],"loss_changes":[1.5943317E3,4.0461542E2,3.8079297E2,1.9942993E1,2.9022168E2,7.992955E1,7.579028E1,1.5407859E1,9.8151245E0,4.6656773E1,2.4577063E2,4.4853706E1,4.2510864E1,2.3198578E1,1.6722961E1,0E0,0E0,0E0,0E0,0E0,0E0,0E0,0E0,0E0,0E0,0E0,0E0,0E0,0E0,0E0,0E0],"parents":[2147483647,0,0,1,1,2,2,3,3,4,4,5,5,6,6,7,7,8,8,9,9,10,10,11,11,12,12,13,13,14,14],"right_children":[2,4,6,8,10,12,14,16,18,20,22,24,26,28,30,-1,-1,-1,-1,-1,-1,-1,-1,-1,-1,-1,-1,-1,-1,-1,-1],"split_conditions":[3.0247825E-1,2.00001E0,1.9119962E0,2.00001E0,2.00001E0,1.1072372E0,3.5215142E0,3.0856442E-1,5.1156646E-1,2.00001E0,2.00001E0,2.00001E0,2.00001E0,2.00001E0,2.00001E0,-2.966387E-2,2.8595105E-2,3.6032394E-2,1.1850287E-2,1.4190726E-2,-1.2040207E-3,3.0108828E-2,-1.693192E-2,3.2402586E-2,4.910675E-3,-2.8942043E-2,1.8107502E-2,-1.0941681E-2,2.6348991E-2,2.1997085E-2,4.5751568E-2],"split_indices":[6,31,6,165,36,6,6,1,4,24,38,30,46,161,36,0,0,0,0,0,0,0,0,0,0,0,0,0,0,0,0],"split_type":[0,0,0,0,0,0,0,0,0,0,0,0,0,0,0,0,0,0,0,0,0,0,0,0,0,0,0,0,0,0,0],"sum_hessian":[2.4278803E4,1.4476317E4,9.802485E3,5.502245E2,1.3926093E4,7.26212E3,2.5403655E3,4.3442276E1,5.067822E2,2.1947844E3,1.1731309E4,5.0071387E3,2.2549814E3,1.6490891E3,8.9127637E2,2.2427177E1,2.1015099E1,4.59241E2,4.7541218E1,7.436434E2,1.4511411E3,2.8368503E2,1.1447623E4,1.520863E2,4.8550522E3,4.8214695E1,2.2067666E3,4.2305252E1,1.6067838E3,8.465723E1,8.0661914E2],"tree_param":{"num_deleted":"0","num_feature":"179","num_nodes":"31","size_leaf_vector":"1"}},{"base_weights":[5.533598E-3,-1.8404542E-1,2.879276E-1,-3.5417834E-1,4.6339717E-2,1.8022573E-1,5.9248483E-1,-5.8517253E-1,-2.8886247E-1,-1.5640391E-1,1.2629813E-1,7.670161E-2,2.8928384E-1,4.5968652E-1,8.390152E-1,-1.8115947E-2,-3.453938E-2,-2.2742419E-2,-8.720916E-3,-5.400294E-2,-4.1740215E-3,-5.620263E-3,9.718176E-3,-5.1601645E-2,4.354333E-3,-3.022712E-4,1.6692389E-2,2.4968304E-2,4.825575E-3,4.0069368E-2,6.1636634E-2],"categories":[],"categories_nodes":[],"categories_segments":[],"categories_sizes":[],"default_left":[0,0,0,0,0,0,0,0,0,0,0,0,0,0,0,0,0,0,0,0,0,0,0,0,0,0,0,0,0,0,0],"id":13,"left_children":[1,3,5,7,9,11,13,15,17,19,21,23,25,27,29,-1,-1,-1,-1,-1,-1,-1,-1,-1,-1,-1,-1,-1,-1,-1,-1],"loss_changes":[1.2999349E3,5.6946893E2,3.1981274E2,1.259187E2,1.000784E2,8.134201E1,8.301886E1,4.308496E1,1.2371594E2,1.17525925E2,7.195028E1,4.267529E1,4.618625E1,2.3843353E1,1.2207031E1,0E0,0E0,0E0,0E0,0E0,0E0,0E0,0E0,0E0,0E0,0E0,0E0,0E0,0E0,0E0,0E0],"parents":[2147483647,0,0,1,1,2,2,3,3,4,4,5,5,6,6,7,7,8,8,9,9,10,10,11,11,12,12,13,13,14,14],"right_children":[2,4,6,8,10,12,14,16,18,20,22,24,26,28,30,-1,-1,-1,-1,-1,-1,-1,-1,-1,-1,-1,-1,-1,-1,-1,-1],"split_conditions":[3.0247825E-1,2.00001E0,1.9119962E0,2.00001E0,2.00001E0,2.00001E0,3.5215142E0,2.00001E0,-9.885396E-2,2.00001E0,2.00001E0,2.00001E0,2.00001E0,2.00001E0,8.350068E0,-1.8115947E-2,-3.453938E-2,-2.2742419E-2,-8.720916E-3,-5.400294E-2,-4.1740215E-3,-5.620263E-3,9.718176E-3,-5.1601645E-2,4.354333E-3,-3.022712E-4,1.6692389E-2,2.4968304E-2,4.825575E-3,4.0069368E-2,6.1636634E-2],"split_indices":[6,27,6,119,39,27,6,131,1,136,119,173,54,51,6,0,0,0,0,0,0,0,0,0,0,0,0,0,0,0,0],"split_type":[0,0,0,0,0,0,0,0,0,0,0,0,0,0,0,0,0,0,0,0,0,0,0,0,0,0,0,0,0,0,0],"sum_hessian":[2.4279531E4,1.4527297E4,9.752233E3,8.356052E3,6.171245E3,7.205658E3,2.5465754E3,1.8401769E3,6.5158745E3,1.7451821E3,4.426063E3,3.6974924E3,3.5081658E3,1.6569124E3,8.8966315E2,5.931108E2,1.247066E3,2.6579292E3,3.8579453E3,1.2669112E2,1.618491E3,9.8190356E2,3.4441597E3,3.339858E1,3.664094E3,4.600745E2,3.0480913E3,1.493375E3,1.6353728E2,8.148252E2,7.4837975E1],"tree_param":{"num_deleted":"0","num_feature":"179","num_nodes":"31","size_leaf_vector":"1"}},{"base_weights":[-3.9996444E-3,-1.9405253E-1,2.7969298E-1,-3.5227412E-1,2.1544553E-2,2.0511463E-1,7.033574E-1,-5.361019E-1,-2.8696913E-1,5.6111497E-1,-2.9508729E-2,1.09855436E-1,3.48227E-1,6.360326E-1,1.0462513E0,-1.4700519E-2,-3.1470306E-2,-1.1064737E-2,-2.57531E-2,5.4970074E-2,2.4824625E-2,2.3009626E-2,-2.7471464E-3,-2.0137586E-2,6.440752E-3,3.0500596E-2,1.5632795E-2,-1.4945254E-2,3.2678634E-2,3.843169E-2,5.6025904E-2],"categories":[],"categories_nodes":[],"categories_segments":[],"categories_sizes":[],"default_left":[0,0,0,0,0,0,0,0,0,0,0,0,0,0,0,0,0,0,0,0,0,0,0,0,0,0,0,0,0,0,0],"id":14,"left_children":[1,3,5,7,9,11,13,15,17,19,21,23,25,27,29,-1,-1,-1,-1,-1,-1,-1,-1,-1,-1,-1,-1,-1,-1,-1,-1],"loss_changes":[1.3087963E3,4.958697E2,3.0754608E2,1.0049158E2,1.695265E2,1.1286804E2,3.2975037E1,4.942914E1,9.2585236E1,1.7958511E1,7.0055145E1,4.839098E1,3.0624695E1,2.021222E1,4.037689E0,0E0,0E0,0E0,0E0,0E0,0E0,0E0,0E0,0E0,0E0,0E0,0E0,0E0,0E0,0E0,0E0],"parents":[2147483647,0,0,1,1,2,2,3,3,4,4,5,5,6,6,7,7,8,8,9,9,10,10,11,11,12,12,13,13,14,14],"right_children":[2,4,6,8,10,12,14,16,18,20,22,24,26,28,30,-1,-1,-1,-1,-1,-1,-1,-1,-1,-1,-1,-1,-1,-1,-1,-1],"split_conditions":[3.0247825E-1,2.00001E0,2.7167552E0,-7.235778E-1,2.00001E0,1.1072372E0,5.935791E0,2.00001E0,2.00001E0,-4.6527135E-1,2.00001E0,2.00001E0,2.00001E0,2.00001E0,2.00001E0,-1.4700519E-2,-3.1470306E-2,-1.1064737E-2,-2.57531E-2,5.4970074E-2,2.4824625E-2,2.3009626E-2,-2.7471464E-3,-2.0137586E-2,6.440752E-3,3.0500596E-2,1.5632795E-2,-1.4945254E-2,3.2678634E-2,3.843169E-2,5.6025904E-2],"split_indices":[6,27,6,7,31,6,6,131,120,0,38,50,132,161,104,0,0,0,0,0,0,0,0,0,0,0,0,0,0,0,0],"split_type":[0,0,0,0,0,0,0,0,0,0,0,0,0,0,0,0,0,0,0,0,0,0,0,0,0,0,0,0,0,0,0],"sum_hessian":[2.4272451E4,1.453524E4,9.737211E3,8.382724E3,6.1525166E3,8.28098E3,1.4562302E3,2.195468E3,6.187256E3,5.309576E2,5.621559E3,4.9727563E3,3.3082244E3,1.2196211E3,2.3660916E2,6.1191516E2,1.583553E3,4.8055674E3,1.3816885E3,5.519408E1,4.757635E2,2.767138E2,5.344845E3,1.7664333E2,4.796113E3,3.9381308E2,2.9144114E3,2.2164162E1,1.1974569E3,5.2332825E1,1.8427634E2],"tree_param":{"num_deleted":"0","num_feature":"179","num_nodes":"31","size_leaf_vector":"1"}},{"base_weights":[-3.027009E-3,-1.0973221E-1,4.3442643E-1,-2.4500169E-1,6.4681605E-2,3.221703E-1,6.861238E-1,-3.1822664E-1,-9.080846E-3,5.32438E-1,2.6819222E-2,5.7223298E-2,3.5568762E-1,6.5790474E-1,1.1755321E0,-2.2077398E-2,-1.2229966E-2,-1.0981057E-2,3.6402978E-3,3.8510617E-2,1.4453036E-2,-1.884301E-2,2.5469037E-3,3.4529936E-2,-3.411817E-3,1.8393971E-2,-2.0418612E-2,3.593297E-2,2.3326708E-2,6.736242E-2,5.1641997E-2],"categories":[],"categories_nodes":[],"categories_segments":[],"categories_sizes":[],"default_left":[0,0,0,0,0,0,0,0,0,0,0,0,0,0,0,0,0,0,0,0,0,0,0,0,0,0,0,0,0,0,0],"id":15,"left_children":[1,3,5,7,9,11,13,15,17,19,21,23,25,27,29,-1,-1,-1,-1,-1,-1,-1,-1,-1,-1,-1,-1,-1,-1,-1,-1],"loss_changes":[1.1291564E3,4.5881567E2,1.338039E2,1.892049E2,1.5043587E2,2.9127533E1,1.9420166E1,7.578345E1,4.475961E1,3.6586746E1,7.6545876E1,2.9431953E1,2.7290405E1,1.5764465E1,5.3050995E-1,0E0,0E0,0E0,0E0,0E0,0E0,0E0,0E0,0E0,0E0,0E0,0E0,0E0,0E0,0E0,0E0],"parents":[2147483647,0,0,1,1,2,2,3,3,4,4,5,5,6,6,7,7,8,8,9,9,10,10,11,11,12,12,13,13,14,14],"right_children":[2,4,6,8,10,12,14,16,18,20,22,24,26,28,30,-1,-1,-1,-1,-1,-1,-1,-1,-1,-1,-1,-1,-1,-1,-1,-1],"split_conditions":[1.1072372E0,2.00001E0,2.7167552E0,3.0247825E-1,2.00001E0,2.00001E0,8.350068E0,-2.0765004E-1,-2.0765004E-1,2.00001E0,-1.2395055E0,2.00001E0,2.00001E0,8.8178796E-1,-3.653026E-1,-2.2077398E-2,-1.2229966E-2,-1.0981057E-2,3.6402978E-3,3.8510617E-2,1.4453036E-2,-1.884301E-2,2.5469037E-3,3.4529936E-2,-3.411817E-3,1.8393971E-2,-2.0418612E-2,3.593297E-2,2.3326708E-2,6.736242E-2,5.1641997E-2],"split_indices":[6,27,6,6,31,54,6,7,7,177,7,25,57,0,3,0,0,0,0,0,0,0,0,0,0,0,0,0,0,0,0],"split_type":[0,0,0,0,0,0,0,0,0,0,0,0,0,0,0,0,0,0,0,0,0,0,0,0,0,0,0,0,0,0,0],"sum_hessian":[2.4188023E4,1.9445545E4,4.742478E3,1.0951515E4,8.49403E3,3.281307E3,1.461171E3,8.357249E3,2.5942664E3,6.3508264E2,7.8589478E3,3.687924E2,2.9125144E3,1.3837301E3,7.744089E1,3.1224084E3,5.2348403E3,7.2598755E2,1.8682787E3,3.2014404E2,3.149386E2,4.422553E2,7.4166924E3,6.02284E1,3.08564E2,2.8672808E3,4.523355E1,1.0482014E3,3.3552878E2,3.1314842E1,4.612604E1],"tree_param":{"num_deleted":"0","num_feature":"179","num_nodes":"31","size_leaf_vector":"1"}},{"base_weights":[-9.034826E-5,-1.00710906E-1,4.1501996E-1,-2.2839317E-1,6.514173E-2,3.1281826E-1,6.512833E-1,-2.9796034E-1,-4.6806186E-3,-3.7591955E-1,9.0846956E-2,8.587031E-2,3.4158614E-1,5.957583E-1,9.6724004E-1,-7.03942E-3,-1.8772649E-2,-1.8968381E-2,3.5348467E-3,-5.6071162E-2,-1.3550917E-2,2.880962E-2,3.4756686E-3,-4.3802787E-2,7.6212944E-3,-1.0033101E-2,1.786678E-2,1.07735805E-2,3.1213662E-2,3.210928E-2,5.1878363E-2],"categories":[],"categories_nodes":[],"categories_segments":[],"categories_sizes":[],"default_left":[0,0,0,0,0,0,0,0,0,0,0,0,0,0,0,0,0,0,0,0,0,0,0,0,0,0,0,0,0,0,0],"id":16,"left_children":[1,3,5,7,9,11,13,15,17,19,21,23,25,27,29,-1,-1,-1,-1,-1,-1,-1,-1,-1,-1,-1,-1,-1,-1,-1,-1],"loss_changes":[1.0085843E3,4.115959E2,1.1355365E2,1.7090887E2,9.5893295E1,2.1453735E1,2.4364197E1,1.0197449E2,7.3626526E1,3.6125023E1,8.269144E1,2.3918507E1,2.5008667E1,1.3005432E1,4.154587E0,0E0,0E0,0E0,0E0,0E0,0E0,0E0,0E0,0E0,0E0,0E0,0E0,0E0,0E0,0E0,0E0],"parents":[2147483647,0,0,1,1,2,2,3,3,4,4,5,5,6,6,7,7,8,8,9,9,10,10,11,11,12,12,13,13,14,14],"right_children":[2,4,6,8,10,12,14,16,18,20,22,24,26,28,30,-1,-1,-1,-1,-1,-1,-1,-1,-1,-1,-1,-1,-1,-1,-1,-1],"split_conditions":[1.1072372E0,2.00001E0,2.7167552E0,3.0247825E-1,-1.2395055E0,2.00001E0,5.935791E0,2.00001E0,2.00001E0,2.00001E0,2.00001E0,2.00001E0,2.00001E0,-8.0203617E-1,2.00001E0,-7.03942E-3,-1.8772649E-2,-1.8968381E-2,3.5348467E-3,-5.6071162E-2,-1.3550917E-2,2.880962E-2,3.4756686E-3,-4.3802787E-2,7.6212944E-3,-1.0033101E-2,1.786678E-2,1.07735805E-2,3.1213662E-2,3.210928E-2,5.1878363E-2],"split_indices":[6,27,6,6,7,54,6,131,126,22,38,162,161,0,104,0,0,0,0,0,0,0,0,0,0,0,0,0,0,0,0],"split_type":[0,0,0,0,0,0,0,0,0,0,0,0,0,0,0,0,0,0,0,0,0,0,0,0,0,0,0,0,0,0,0],"sum_hessian":[2.414493E4,1.9434795E4,4.710135E3,1.0980805E4,8.45399E3,3.2895015E3,1.4206333E3,8.375859E3,2.604946E3,4.6481808E2,7.989172E3,3.7051517E2,2.9189863E3,1.2107471E3,2.0988622E2,2.766867E3,5.608992E3,4.3560522E2,2.1693408E3,5.6142033E1,4.0867606E2,3.3528687E2,7.653885E3,2.3189867E1,3.473253E2,8.205675E1,2.8369297E3,8.504934E1,1.1256978E3,3.9134926E1,1.7075128E2],"tree_param":{"num_deleted":"0","num_feature":"179","num_nodes":"31","size_leaf_vector":"1"}},{"base_weights":[-4.9905106E-3,-1.5787111E-1,2.255215E-1,-2.9664347E-1,2.9100535E-2,1.6004433E-1,6.092054E-1,-3.616139E-1,-2.8844288E-2,5.5637765E-1,-2.187397E-2,8.376773E-2,2.7910686E-1,5.809684E-1,5.705854E-2,-2.3145719E-2,-1.0034142E-2,-2.3793403E-2,1.806031E-3,4.7862332E-2,2.3832569E-2,5.3008642E-2,-1.4838829E-3,-8.596762E-4,9.6194735E-3,2.7149836E-2,1.2194625E-2,3.1886216E-2,1.7670676E-2],"categories":[],"categories_nodes":[],"categories_segments":[],"categories_sizes":[],"default_left":[0,0,0,0,0,0,0,0,0,0,0,0,0,0,0,0,0,0,0,0,0,0,0,0,0,0,0,0,0],"id":17,"left_children":[1,3,5,7,9,11,13,15,17,19,21,23,25,27,-1,-1,-1,-1,-1,-1,-1,-1,-1,-1,-1,-1,-1,-1,-1],"loss_changes":[8.463061E2,3.7464465E2,2.4047958E2,1.441878E2,1.6536572E2,7.427861E1,2.0300842E1,1.0863623E2,4.703993E1,1.6877457E1,4.740809E1,5.4706894E1,2.9551422E1,1.6916931E1,0E0,0E0,0E0,0E0,0E0,0E0,0E0,0E0,0E0,0E0,0E0,0E0,0E0,0E0,0E0],"parents":[2147483647,0,0,1,1,2,2,3,3,4,4,5,5,6,6,7,7,8,8,9,9,10,10,11,11,12,12,13,13],"right_children":[2,4,6,8,10,12,14,16,18,20,22,24,26,28,-1,-1,-1,-1,-1,-1,-1,-1,-1,-1,-1,-1,-1,-1,-1],"split_conditions":[3.0247825E-1,2.00001E0,2.7167552E0,5.4502314E-1,2.00001E0,1.1072372E0,8.350068E0,8.242055E-1,2.00001E0,2.00001E0,2.00001E0,2.00001E0,2.00001E0,8.6876476E-1,5.705854E-2,-2.3145719E-2,-1.0034142E-2,-2.3793403E-2,1.806031E-3,4.7862332E-2,2.3832569E-2,5.3008642E-2,-1.4838829E-3,-8.596762E-4,9.6194735E-3,2.7149836E-2,1.2194625E-2,3.1886216E-2,1.7670676E-2],"split_indices":[6,27,6,0,31,6,6,7,139,142,35,27,132,1,0,0,0,0,0,0,0,0,0,0,0,0,0,0,0],"split_type":[0,0,0,0,0,0,0,0,0,0,0,0,0,0,0,0,0,0,0,0,0,0,0,0,0,0,0,0,0],"sum_hessian":[2.4012932E4,1.443779E4,9.575143E3,8.286715E3,6.151075E3,8.180521E3,1.3946212E3,6.6685225E3,1.6181925E3,5.413606E2,5.609715E3,4.9872056E3,3.1933154E3,1.326312E3,6.830929E1,4.0913098E3,2.5772126E3,2.0452567E2,1.4136669E3,8.7980774E1,4.5337982E2,3.9201797E1,5.570513E3,2.5851829E3,2.4020227E3,3.7426013E2,2.8190554E3,1.0601027E3,2.662093E2],"tree_param":{"num_deleted":"0","num_feature":"179","num_nodes":"29","size_leaf_vector":"1"}},{"base_weights":[-7.5360714E-3,-4.850823E-2,2.609386E-1,5.711898E-1,-6.993968E-2,1.6410364E-1,4.305483E-1,9.291703E-1,4.6771884E-1,-1.885686E-1,2.901236E-2,-1.3495085E-1,2.115951E-1,-2.2494769E-2,4.6113744E-1,5.839867E-2,3.6373656E-2,3.6370944E-2,9.142371E-3,5.2910764E-3,-1.1290933E-2,2.8091962E-2,7.8907696E-4,-1.1125743E-2,4.213724E-2,4.116435E-3,1.6919404E-2,1.3531751E-2,2.7657036E-2],"categories":[],"categories_nodes":[],"categories_segments":[],"categories_sizes":[],"default_left":[0,0,0,0,0,0,0,0,0,0,0,0,0,0,0,0,0,0,0,0,0,0,0,0,0,0,0,0,0],"id":18,"left_children":[1,3,5,7,9,11,13,15,17,19,21,23,25,-1,27,-1,-1,-1,-1,-1,-1,-1,-1,-1,-1,-1,-1,-1,-1],"loss_changes":[2.650622E2,2.7769223E2,5.2330627E1,2.5454788E1,2.372185E2,2.8896362E1,3.1419525E1,6.6502533E0,4.0130096E1,1.00806E2,7.766946E1,2.4086697E1,2.8727242E1,0E0,1.948912E1,0E0,0E0,0E0,0E0,0E0,0E0,0E0,0E0,0E0,0E0,0E0,0E0,0E0,0E0],"parents":[2147483647,0,0,1,1,2,2,3,3,4,4,5,5,6,6,7,7,8,8,9,9,10,10,11,11,12,12,14,14],"right_children":[2,4,6,8,10,12,14,16,18,20,22,24,26,-1,28,-1,-1,-1,-1,-1,-1,-1,-1,-1,-1,-1,-1,-1,-1],"split_conditions":[8.3009917E-1,2.00001E0,1.8637354E0,2.00001E0,-1.2850651E-1,2.00001E0,2.00001E0,2.00001E0,8.242055E-1,2.00001E0,2.00001E0,2.9442737E0,2.00001E0,-2.2494769E-2,2.00001E0,5.839867E-2,3.6373656E-2,3.6370944E-2,9.142371E-3,5.2910764E-3,-1.1290933E-2,2.8091962E-2,7.8907696E-4,-1.1125743E-2,4.213724E-2,4.116435E-3,1.6919404E-2,1.3531751E-2,2.7657036E-2],"split_indices":[5,31,5,102,0,139,89,122,7,102,30,4,117,0,158,0,0,0,0,0,0,0,0,0,0,0,0,0,0],"split_type":[0,0,0,0,0,0,0,0,0,0,0,0,0,0,0,0,0,0,0,0,0,0,0,0,0,0,0,0,0],"sum_hessian":[2.4094438E4,2.0904936E4,3.1895015E3,6.979453E2,2.020699E4,2.0315815E3,1.1579199E3,1.5471048E2,5.432348E2,9.189376E3,1.1017614E4,2.7816025E2,1.7534213E3,3.841844E1,1.1195015E3,6.864559E1,8.606489E1,2.8335953E2,2.5987527E2,1.0319503E3,8.157426E3,2.65949E2,1.0751665E4,2.560045E2,2.2155771E1,8.690588E2,8.843625E2,3.6587024E2,7.536313E2],"tree_param":{"num_deleted":"0","num_feature":"179","num_nodes":"29","size_leaf_vector":"1"}},{"base_weights":[1.8415528E-3,-1.4690594E-1,2.2359076E-1,-2.64163E-1,1.214205E-2,1.7819563E-1,7.0329565E-1,-3.080947E-1,1.0042005E-2,5.042581E-1,-3.5124704E-2,9.110181E-2,2.939663E-1,6.6370946E-1,1.1117488E0,-6.9619264E-3,-1.9643245E-2,1.8331362E-2,-3.1340215E-3,3.627118E-2,1.7969728E-2,2.1479765E-2,-2.9228656E-3,-6.294377E-3,6.5835216E-3,8.116803E-3,1.6695863E-2,1.8151853E-2,3.6189727E-2,6.29882E-2,4.5945268E-2],"categories":[],"categories_nodes":[],"categories_segments":[],"categories_sizes":[],"default_left":[0,0,0,0,0,0,0,0,0,0,0,0,0,0,0,0,0,0,0,0,0,0,0,0,0,0,0,0,0,0,0],"id":19,"left_children":[1,3,5,7,9,11,13,15,17,19,21,23,25,27,29,-1,-1,-1,-1,-1,-1,-1,-1,-1,-1,-1,-1,-1,-1,-1,-1],"loss_changes":[7.9350867E2,2.685285E2,2.1019855E2,9.984503E1,1.4217181E2,8.8952484E1,1.2757355E1,1.0219995E2,2.972754E1,1.6899551E1,6.049427E1,4.4362038E1,1.9867035E1,1.3528259E1,9.050293E-1,0E0,0E0,0E0,0E0,0E0,0E0,0E0,0E0,0E0,0E0,0E0,0E0,0E0,0E0,0E0,0E0],"parents":[2147483647,0,0,1,1,2,2,3,3,4,4,5,5,6,6,7,7,8,8,9,9,10,10,11,11,12,12,13,13,14,14],"right_children":[2,4,6,8,10,12,14,16,18,20,22,24,26,28,30,-1,-1,-1,-1,-1,-1,-1,-1,-1,-1,-1,-1,-1,-1,-1,-1],"split_conditions":[3.0247825E-1,2.00001E0,3.5215142E0,8.8178796E-1,2.00001E0,1.1072372E0,8.350068E0,2.00001E0,2.00001E0,2.00001E0,2.00001E0,2.00001E0,-4.6527135E-1,2.00001E0,2.00001E0,-6.9619264E-3,-1.9643245E-2,1.8331362E-2,-3.1340215E-3,3.627118E-2,1.7969728E-2,2.1479765E-2,-2.9228656E-3,-6.294377E-3,6.5835216E-3,8.116803E-3,1.6695863E-2,1.8151853E-2,3.6189727E-2,6.29882E-2,4.5945268E-2],"split_indices":[6,27,6,0,31,6,6,131,152,131,38,54,0,102,177,0,0,0,0,0,0,0,0,0,0,0,0,0,0,0,0],"split_type":[0,0,0,0,0,0,0,0,0,0,0,0,0,0,0,0,0,0,0,0,0,0,0,0,0,0,0,0,0,0,0],"sum_hessian":[2.405492E4,1.4397522E4,9.657398E3,8.2871875E3,6.1103345E3,8.823765E3,8.336336E2,7.1426978E3,1.14449E3,5.3460864E2,5.5757256E3,5.036564E3,3.787201E3,7.6237164E2,7.126197E1,2.3882046E3,4.754493E3,1.9318591E2,9.513041E2,2.0999628E2,3.2461237E2,2.6572946E2,5.3099966E3,7.9299084E2,4.243573E3,8.829904E2,2.9042104E3,1.281477E2,6.3422394E2,3.718694E1,3.4075027E1],"tree_param":{"num_deleted":"0","num_feature":"179","num_nodes":"31","size_leaf_vector":"1"}},{"base_weights":[4.493986E-3,-1.4145271E-1,2.212067E-1,-2.5725228E-1,1.5351976E-2,1.4059581E-1,4.6176034E-1,-4.6027648E-1,-1.9944726E-1,4.581978E-1,-2.5744844E-2,-6.1294775E-2,1.4553928E-1,3.713135E-1,6.4472723E-1,-2.9134257E-2,-1.389943E-2,-2.1338427E-2,-7.277397E-3,4.4449758E-2,1.8683774E-2,6.0861576E-2,-1.7870906E-3,3.3075847E-3,1.1520076E-2,1.9261247E-2,-3.514197E-2,2.3146656E-3,3.4237947E-2],"categories":[],"categories_nodes":[],"categories_segments":[],"categories_sizes":[],"default_left":[0,0,0,0,0,0,0,0,0,0,0,0,0,0,0,0,0,0,0,0,0,0,0,0,0,0,0,0,0],"id":20,"left_children":[1,3,5,7,9,11,13,15,17,19,21,-1,23,25,27,-1,-1,-1,-1,-1,-1,-1,-1,-1,-1,-1,-1,-1,-1],"loss_changes":[7.614323E2,2.612229E2,1.8780322E2,9.702203E1,1.1124661E2,4.920781E1,3.9995422E1,4.0742035E1,7.887875E1,1.8568748E1,6.955286E1,0E0,4.8711838E1,2.461827E1,1.92034E1,0E0,0E0,0E0,0E0,0E0,0E0,0E0,0E0,0E0,0E0,0E0,0E0,0E0,0E0],"parents":[2147483647,0,0,1,1,2,2,3,3,4,4,5,5,6,6,7,7,8,8,9,9,10,10,12,12,13,13,14,14],"right_children":[2,4,6,8,10,12,14,16,18,20,22,-1,24,26,28,-1,-1,-1,-1,-1,-1,-1,-1,-1,-1,-1,-1,-1,-1],"split_conditions":[3.0247825E-1,2.00001E0,1.9119962E0,2.00001E0,2.00001E0,2.00001E0,3.5215142E0,8.242055E-1,2.00001E0,2.00001E0,2.00001E0,-6.1294775E-2,2.00001E0,4.566078E0,2.00001E0,-2.9134257E-2,-1.389943E-2,-2.1338427E-2,-7.277397E-3,4.4449758E-2,1.8683774E-2,6.0861576E-2,-1.7870906E-3,3.3075847E-3,1.1520076E-2,1.9261247E-2,-3.514197E-2,2.3146656E-3,3.4237947E-2],"split_indices":[6,27,6,119,31,77,6,7,22,142,35,0,27,4,159,0,0,0,0,0,0,0,0,0,0,0,0,0,0],"split_type":[0,0,0,0,0,0,0,0,0,0,0,0,0,0,0,0,0,0,0,0,0,0,0,0,0,0,0,0,0],"sum_hessian":[2.4072254E4,1.4384952E4,9.687301E3,8.274E3,6.110952E3,7.2570176E3,2.430283E3,1.8321423E3,6.4418574E3,5.180854E2,5.5928667E3,2.5268337E1,7.2317495E3,1.6283586E3,8.019243E2,1.0947844E3,7.3735803E2,1.2333337E3,5.208524E3,8.341484E1,4.3467053E2,4.365972E1,5.549207E3,3.7373154E3,3.494434E3,1.6081724E3,2.0186174E1,5.041578E1,7.5150854E2],"tree_param":{"num_deleted":"0","num_feature":"179","num_nodes":"29","size_leaf_vector":"1"}},{"base_weights":[2.8597058E-3,-7.994776E-2,3.5073552E-1,-1.9443926E-1,6.529922E-2,2.7936226E-1,6.778674E-1,-3.0205727E-1,-1.02237746E-1,4.8814335E-1,3.1209033E-2,2.8569683E-1,-2.8034976E-2,6.4038366E-1,1.1108462E0,-5.981573E-2,-1.4272316E-2,-1.1910517E-2,2.1035827E-3,3.579588E-2,1.19209485E-2,-3.6864206E-2,2.2775566E-3,1.4596841E-2,-2.9023765E-2,3.329438E-2,1.4631555E-3,6.0510647E-2,4.5540888E-2],"categories":[],"categories_nodes":[],"categories_segments":[],"categories_sizes":[],"default_left":[0,0,0,0,0,0,0,0,0,0,0,0,0,0,0,0,0,0,0,0,0,0,0,0,0,0,0,0,0],"id":21,"left_children":[1,3,5,7,9,11,13,15,17,19,21,23,-1,25,27,-1,-1,-1,-1,-1,-1,-1,-1,-1,-1,-1,-1,-1,-1],"loss_changes":[6.9181396E2,3.2259668E2,1.0762219E2,1.0760724E2,1.2325186E2,2.0340088E1,1.269928E1,7.400421E1,1.1467973E2,3.6114716E1,8.726547E1,2.0516022E1,0E0,1.1869995E1,1.7920685E-1,0E0,0E0,0E0,0E0,0E0,0E0,0E0,0E0,0E0,0E0,0E0,0E0,0E0,0E0],"parents":[2147483647,0,0,1,1,2,2,3,3,4,4,5,5,6,6,7,7,8,8,9,9,10,10,11,11,13,13,14,14],"right_children":[2,4,6,8,10,12,14,16,18,20,22,24,-1,26,28,-1,-1,-1,-1,-1,-1,-1,-1,-1,-1,-1,-1,-1,-1],"split_conditions":[1.1072372E0,2.00001E0,3.5215142E0,3.0006396E-3,2.00001E0,6.1878834E0,8.350068E0,2.00001E0,5.9264544E-3,2.00001E0,-1.7554333E0,5.9982805E0,-2.8034976E-2,1.5725968E0,1.2966947E-1,-5.981573E-2,-1.4272316E-2,-1.1910517E-2,2.1035827E-3,3.579588E-2,1.19209485E-2,-3.6864206E-2,2.2775566E-3,1.4596841E-2,-2.9023765E-2,3.329438E-2,1.4631555E-3,6.0510647E-2,4.5540888E-2],"split_indices":[6,27,6,1,31,4,6,11,3,177,7,5,0,2,3,0,0,0,0,0,0,0,0,0,0,0,0,0,0],"split_type":[0,0,0,0,0,0,0,0,0,0,0,0,0,0,0,0,0,0,0,0,0,0,0,0,0,0,0,0,0],"sum_hessian":[2.4013746E4,1.9397246E4,4.6165005E3,1.0846842E4,8.550403E3,3.7911958E3,8.253047E2,5.003943E3,5.842899E3,6.369205E2,7.913483E3,3.7634768E3,2.7718988E1,7.618306E2,6.3474037E1,8.995859E1,4.913984E3,3.008011E3,2.834888E3,3.321233E2,3.047972E2,1.4405716E2,7.769426E3,3.7372166E3,2.6260212E1,7.3122473E2,3.0605883E1,3.9033455E1,2.4440586E1],"tree_param":{"num_deleted":"0","num_feature":"179","num_nodes":"29","size_leaf_vector":"1"}},{"base_weights":[-3.611174E-4,-8.361317E-2,3.445367E-1,-1.863109E-1,4.6813942E-2,2.6414803E-1,5.3574485E-1,-4.6586004E-1,-1.4166678E-1,-1.14068225E-1,1.1492059E-1,5.1028806E-1,2.3083341E-1,3.33731E-1,5.957219E-1,-4.3159407E-2,-1.8063305E-2,-1.5905052E-2,-3.0164814E-3,-4.794569E-2,-2.933272E-3,1.3888858E-2,1.8629497E-3,2.8100982E-2,2.0238222E-3,6.3215396E-3,1.6289864E-2,-3.366735E-2,2.0958625E-2,9.915079E-3,3.2585394E-2],"categories":[],"categories_nodes":[],"categories_segments":[],"categories_sizes":[],"default_left":[0,0,0,0,0,0,0,0,0,0,0,0,0,0,0,0,0,0,0,0,0,0,0,0,0,0,0,0,0,0,0],"id":22,"left_children":[1,3,5,7,9,11,13,15,17,19,21,23,25,27,29,-1,-1,-1,-1,-1,-1,-1,-1,-1,-1,-1,-1,-1,-1,-1,-1],"loss_changes":[6.866467E2,2.5803937E2,7.133252E1,1.3444327E2,9.300671E1,2.6742294E1,1.6465057E1,6.135022E1,1.333708E2,1.181189E2,7.541151E1,9.447769E0,2.8581192E1,2.7569916E1,2.3438232E1,0E0,0E0,0E0,0E0,0E0,0E0,0E0,0E0,0E0,0E0,0E0,0E0,0E0,0E0,0E0,0E0],"parents":[2147483647,0,0,1,1,2,2,3,3,4,4,5,5,6,6,7,7,8,8,9,9,10,10,11,11,12,12,13,13,14,14],"right_children":[2,4,6,8,10,12,14,16,18,20,22,24,26,28,30,-1,-1,-1,-1,-1,-1,-1,-1,-1,-1,-1,-1,-1,-1,-1,-1],"split_conditions":[1.1072372E0,2.00001E0,2.7167552E0,2.00001E0,2.00001E0,2.00001E0,2.00001E0,-7.235778E-1,-3.5349044E-1,2.00001E0,2.00001E0,1.8920825E0,2.00001E0,-8.118361E-1,2.00001E0,-4.3159407E-2,-1.8063305E-2,-1.5905052E-2,-3.0164814E-3,-4.794569E-2,-2.933272E-3,1.3888858E-2,1.8629497E-3,2.8100982E-2,2.0238222E-3,6.3215396E-3,1.6289864E-2,-3.366735E-2,2.0958625E-2,9.915079E-3,3.2585394E-2],"split_indices":[6,27,6,139,39,132,151,7,1,136,24,0,27,1,36,0,0,0,0,0,0,0,0,0,0,0,0,0,0,0,0],"split_type":[0,0,0,0,0,0,0,0,0,0,0,0,0,0,0,0,0,0,0,0,0,0,0,0,0,0,0,0,0,0,0],"sum_hessian":[2.3911762E4,1.9262824E4,4.648938E3,1.0776795E4,8.486029E3,3.2745972E3,1.3743406E3,1.4827555E3,9.29404E3,2.5237434E3,5.962286E3,3.886677E2,2.8859297E3,3.16128E2,1.0582126E3,3.0747534E2,1.1752802E3,2.9317214E3,6.362318E3,1.5431177E2,2.3694316E3,1.9243474E3,4.0379385E3,3.4993915E2,3.872856E1,1.3757598E3,1.5101698E3,2.4184963E1,2.9194302E2,1.3122751E2,9.269851E2],"tree_param":{"num_deleted":"0","num_feature":"179","num_nodes":"31","size_leaf_vector":"1"}},{"base_weights":[1.1126385E-2,-1.1782602E-1,2.0388897E-1,-2.2161116E-1,2.1067703E-2,1.545843E-1,5.089131E-1,3.5058537E-1,-2.3784216E-1,-1.7259611E-1,7.398474E-2,-5.8385797E-2,1.8920061E-1,5.738805E-1,2.3730314E-1,1.1307584E-2,6.555861E-2,-1.21744005E-2,4.9995836E-2,-4.723115E-2,-6.097276E-3,-4.9327416E-3,7.3231123E-3,-3.0840594E-2,1.1870698E-3,6.2588216E-3,1.41039565E-2,2.6781052E-2,5.1029928E-2,-1.7099421E-3,2.740092E-2],"categories":[],"categories_nodes":[],"categories_segments":[],"categories_sizes":[],"default_left":[0,0,0,0,0,0,0,0,0,0,0,0,0,0,0,0,0,0,0,0,0,0,0,0,0,0,0,0,0,0,0],"id":23,"left_children":[1,3,5,7,9,11,13,15,17,19,21,23,25,27,29,-1,-1,-1,-1,-1,-1,-1,-1,-1,-1,-1,-1,-1,-1,-1,-1],"loss_changes":[5.9590533E2,2.0706447E2,1.444335E2,7.6436066E1,6.297642E1,6.1004715E1,2.3450348E1,2.6857481E1,5.6114044E1,5.1454887E1,6.0401184E1,5.3100494E1,4.2285202E1,1.787677E1,2.1928047E1,0E0,0E0,0E0,0E0,0E0,0E0,0E0,0E0,0E0,0E0,0E0,0E0,0E0,0E0,0E0,0E0],"parents":[2147483647,0,0,1,1,2,2,3,3,4,4,5,5,6,6,7,7,8,8,9,9,10,10,11,11,12,12,13,13,14,14],"right_children":[2,4,6,8,10,12,14,16,18,20,22,24,26,28,30,-1,-1,-1,-1,-1,-1,-1,-1,-1,-1,-1,-1,-1,-1,-1,-1],"split_conditions":[3.0247825E-1,2.00001E0,2.7167552E0,2.00001E0,2.00001E0,2.00001E0,8.6876476E-1,8.3009917E-1,3.9310079E0,2.00001E0,2.00001E0,2.00001E0,1.1072372E0,7.545309E0,8.3009917E-1,1.1307584E-2,6.555861E-2,-1.21744005E-2,4.9995836E-2,-4.723115E-2,-6.097276E-3,-4.9327416E-3,7.3231123E-3,-3.0840594E-2,1.1870698E-3,6.2588216E-3,1.41039565E-2,2.6781052E-2,5.1029928E-2,-1.7099421E-3,2.740092E-2],"split_indices":[6,27,6,147,119,54,1,5,5,124,39,75,6,6,5,0,0,0,0,0,0,0,0,0,0,0,0,0,0,0,0],"split_type":[0,0,0,0,0,0,0,0,0,0,0,0,0,0,0,0,0,0,0,0,0,0,0,0,0,0,0,0,0,0,0],"sum_hessian":[2.397118E4,1.436309E4,9.608089E3,8.220166E3,6.142925E3,8.272426E3,1.3356636E3,2.2617429E2,7.993991E3,1.3178059E3,4.8251187E3,1.1565137E3,7.115912E3,1.0769508E3,2.5871265E2,2.0132964E2,2.4844654E1,7.958493E3,3.5498173E1,8.004799E1,1.2377578E3,1.4266097E3,3.398509E3,1.4744525E2,1.0090684E3,4.2136523E3,2.90226E3,9.9401685E2,8.293405E1,1.3854361E2,1.2016904E2],"tree_param":{"num_deleted":"0","num_feature":"179","num_nodes":"31","size_leaf_vector":"1"}},{"base_weights":[-3.1668611E-3,-7.3994316E-2,2.965344E-1,-1.7620113E-1,5.490482E-2,2.3941706E-1,5.725188E-1,-3.513648E-1,-1.2037469E-1,3.9431486E-1,2.893577E-2,4.610329E-1,2.0975249E-1,4.2850554E-1,6.946266E-1,-8.204537E-3,-2.0769427E-2,-1.5847484E-2,-3.4025472E-3,3.1741023E-2,8.631479E-3,-3.2938484E-2,1.98786E-3,9.491302E-3,3.0616773E-2,1.1788298E-2,-1.107451E-3,-2.8686622E-2,2.5527675E-2,1.9194385E-2,3.9356034E-2],"categories":[],"categories_nodes":[],"categories_segments":[],"categories_sizes":[],"default_left":[0,0,0,0,0,0,0,0,0,0,0,0,0,0,0,0,0,0,0,0,0,0,0,0,0,0,0,0,0,0,0],"id":24,"left_children":[1,3,5,7,9,11,13,15,17,19,21,23,25,27,29,-1,-1,-1,-1,-1,-1,-1,-1,-1,-1,-1,-1,-1,-1,-1,-1],"loss_changes":[5.06451E2,2.5424918E2,7.175479E1,1.0521338E2,7.522038E1,2.4755844E1,1.3441681E1,3.1116394E1,8.394768E1,3.2230286E1,5.903922E1,1.8162476E1,2.0129272E1,2.9987152E1,1.1803665E1,0E0,0E0,0E0,0E0,0E0,0E0,0E0,0E0,0E0,0E0,0E0,0E0,0E0,0E0,0E0,0E0],"parents":[2147483647,0,0,1,1,2,2,3,3,4,4,5,5,6,6,7,7,8,8,9,9,10,10,11,11,12,12,13,13,14,14],"right_children":[2,4,6,8,10,12,14,16,18,20,22,24,26,28,30,-1,-1,-1,-1,-1,-1,-1,-1,-1,-1,-1,-1,-1,-1,-1,-1],"split_conditions":[1.1072372E0,2.00001E0,3.5215142E0,-7.235778E-1,2.00001E0,2.00001E0,-1.9236653E-1,2.00001E0,2.00001E0,8.242055E-1,2.00001E0,2.00001E0,2.00001E0,2.00001E0,2.00001E0,-8.204537E-3,-2.0769427E-2,-1.5847484E-2,-3.4025472E-3,3.1741023E-2,8.631479E-3,-3.2938484E-2,1.98786E-3,9.491302E-3,3.0616773E-2,1.1788298E-2,-1.107451E-3,-2.8686622E-2,2.5527675E-2,1.9194385E-2,3.9356034E-2],"split_indices":[6,27,6,7,31,132,2,8,119,7,169,158,51,159,141,0,0,0,0,0,0,0,0,0,0,0,0,0,0,0,0],"split_type":[0,0,0,0,0,0,0,0,0,0,0,0,0,0,0,0,0,0,0,0,0,0,0,0,0,0,0,0,0,0,0],"sum_hessian":[2.3856691E4,1.9297035E4,4.559655E3,1.0762699E4,8.534337E3,3.7793528E3,7.803019E2,2.5998853E3,8.162814E3,6.055636E2,7.928773E3,4.4444974E2,3.334903E3,3.601051E2,4.2019678E2,6.632867E2,1.9365986E3,1.714932E3,6.447882E3,2.8955872E2,3.1600485E2,1.2190328E2,7.8068696E3,1.5996689E2,2.8448285E2,2.9985276E3,3.3637555E2,2.6795702E1,3.3330942E2,9.756666E1,3.2263013E2],"tree_param":{"num_deleted":"0","num_feature":"179","num_nodes":"31","size_leaf_vector":"1"}},{"base_weights":[-4.0640016E-3,-1.1555839E-1,1.6468221E-1,-2.0593E-1,2.732567E-2,1.1953334E-1,4.4667378E-1,-4.0495336E-1,-1.4566144E-1,-1.695694E-1,7.361637E-2,-1.4979033E-2,1.6386439E-1,4.9275273E-1,-7.746831E-2,-1.1032535E-2,-2.903232E-2,-1.8331563E-2,-4.9712504E-3,-6.555021E-3,-4.2962093E-2,-4.2008057E-2,4.182331E-3,1.5174407E-3,-3.5203975E-2,9.766966E-3,-2.2814532E-3,2.1942576E-2,4.0602554E-2,-3.497466E-2,4.1019674E-3],"categories":[],"categories_nodes":[],"categories_segments":[],"categories_sizes":[],"default_left":[0,0,0,0,0,0,0,0,0,0,0,0,0,0,0,0,0,0,0,0,0,0,0,0,0,0,0,0,0,0,0],"id":25,"left_children":[1,3,5,7,9,11,13,15,17,19,21,23,25,27,29,-1,-1,-1,-1,-1,-1,-1,-1,-1,-1,-1,-1,-1,-1,-1,-1],"loss_changes":[4.4827155E2,1.8526155E2,1.2063333E2,1.0535751E2,5.0682816E1,4.8735245E1,3.1626007E1,6.599936E1,6.889967E1,2.7971329E1,4.1331364E1,6.3325203E1,4.0539368E1,2.0336365E1,1.0629291E1,0E0,0E0,0E0,0E0,0E0,0E0,0E0,0E0,0E0,0E0,0E0,0E0,0E0,0E0,0E0,0E0],"parents":[2147483647,0,0,1,1,2,2,3,3,4,4,5,5,6,6,7,7,8,8,9,9,10,10,11,11,12,12,13,13,14,14],"right_children":[2,4,6,8,10,12,14,16,18,20,22,24,26,28,30,-1,-1,-1,-1,-1,-1,-1,-1,-1,-1,-1,-1,-1,-1,-1,-1],"split_conditions":[3.0247825E-1,2.0825832E-1,2.7167552E0,2.00001E0,2.00001E0,-4.6527135E-1,1.2252558E0,2.00001E0,2.00001E0,2.749239E0,-1.7554333E0,1.5725968E0,2.00001E0,5.935791E0,2.00001E0,-1.1032535E-2,-2.903232E-2,-1.8331563E-2,-4.9712504E-3,-6.555021E-3,-4.2962093E-2,-4.2008057E-2,4.182331E-3,1.5174407E-3,-3.5203975E-2,9.766966E-3,-2.2814532E-3,2.1942576E-2,4.0602554E-2,-3.497466E-2,4.1019674E-3],"split_indices":[6,0,6,119,119,0,1,15,22,2,7,2,51,6,141,0,0,0,0,0,0,0,0,0,0,0,0,0,0,0,0],"split_type":[0,0,0,0,0,0,0,0,0,0,0,0,0,0,0,0,0,0,0,0,0,0,0,0,0,0,0,0,0,0,0],"sum_hessian":[2.382415E4,1.4345845E4,9.478306E3,8.78748E3,5.5583643E3,8.171426E3,1.3068799E3,2.0411898E3,6.746291E3,1.0575344E3,4.50083E3,2.0256671E3,6.145759E3,1.2013273E3,1.0555255E2,9.972875E2,1.0439025E3,1.1661556E3,5.5801353E3,1.0027902E3,5.4744175E1,4.7969128E1,4.452861E3,1.9015428E3,1.2412428E2,5.3430674E3,8.0269135E2,1.029851E3,1.7147629E2,2.0851921E1,8.470063E1],"tree_param":{"num_deleted":"0","num_feature":"179","num_nodes":"31","size_leaf_vector":"1"}},{"base_weights":[-5.7328707E-3,-1.2219042E-1,1.6999815E-1,-2.1943283E-1,7.1115005E-3,1.2503074E-1,4.4724715E-1,-3.4133E-1,-1.2949231E-1,3.8761148E-1,-2.7481424E-2,8.7415475E-1,1.17718175E-1,3.9571273E-1,7.489936E-1,2.7901826E-2,-1.8191539E-2,-3.4211986E-3,-1.921045E-2,2.6477784E-2,6.1431457E-3,-3.4646846E-2,-4.887267E-4,5.7480086E-2,2.001015E-2,-3.3883394E-3,7.4105165E-3,1.0494786E-2,2.280964E-2,4.1932475E-2,1.2385962E-2],"categories":[],"categories_nodes":[],"categories_segments":[],"categories_sizes":[],"default_left":[0,0,0,0,0,0,0,0,0,0,0,0,0,0,0,0,0,0,0,0,0,0,0,0,0,0,0,0,0,0,0],"id":26,"left_children":[1,3,5,7,9,11,13,15,17,19,21,23,25,27,29,-1,-1,-1,-1,-1,-1,-1,-1,-1,-1,-1,-1,-1,-1,-1,-1],"loss_changes":[4.8483817E2,1.7915524E2,1.1766501E2,8.9115265E1,8.0525925E1,4.4412018E1,2.0189178E1,7.006299E1,7.279058E1,1.909452E1,6.607462E1,9.77499E0,4.5532196E1,1.25733185E1,8.3784485E0,0E0,0E0,0E0,0E0,0E0,0E0,0E0,0E0,0E0,0E0,0E0,0E0,0E0,0E0,0E0,0E0],"parents":[2147483647,0,0,1,1,2,2,3,3,4,4,5,5,6,6,7,7,8,8,9,9,10,10,11,11,12,12,13,13,14,14],"right_children":[2,4,6,8,10,12,14,16,18,20,22,24,26,28,30,-1,-1,-1,-1,-1,-1,-1,-1,-1,-1,-1,-1,-1,-1,-1,-1],"split_conditions":[3.0247825E-1,2.00001E0,2.7167552E0,-9.885396E-2,2.00001E0,2.00001E0,5.935791E0,2.00001E0,2.00001E0,3.9595458E-1,2.00001E0,2.00001E0,2.00001E0,2.00001E0,8.178374E-1,2.7901826E-2,-1.8191539E-2,-3.4211986E-3,-1.921045E-2,2.6477784E-2,6.1431457E-3,-3.4646846E-2,-4.887267E-4,5.7480086E-2,2.001015E-2,-3.3883394E-3,7.4105165E-3,1.0494786E-2,2.280964E-2,4.1932475E-2,1.2385962E-2],"split_indices":[6,27,6,1,31,73,6,157,120,2,34,127,54,141,1,0,0,0,0,0,0,0,0,0,0,0,0,0,0,0,0],"split_type":[0,0,0,0,0,0,0,0,0,0,0,0,0,0,0,0,0,0,0,0,0,0,0,0,0,0,0,0,0,0,0],"sum_hessian":[2.3688838E4,1.4247366E4,9.441473E3,8.131396E3,6.1159697E3,8.125102E3,1.3163712E3,3.4511829E3,4.6802134E3,5.088409E2,5.607129E3,7.7400375E1,8.0477017E3,1.1263214E3,1.9004976E2,8.365501E1,3.3675278E3,3.7761497E3,9.0406354E2,3.3059375E2,1.7824716E2,1.4434282E2,5.462786E3,4.8049713E1,2.9350662E1,1.1360209E3,6.9116807E3,2.7767422E2,8.486472E2,1.606445E2,2.9405268E1],"tree_param":{"num_deleted":"0","num_feature":"179","num_nodes":"31","size_leaf_vector":"1"}},{"base_weights":[3.8253926E-3,-9.323773E-2,1.5212974E-1,-1.7474993E-1,3.3228073E-2,8.8862225E-2,3.4541625E-1,-2.0339175E-3,-2.3454851E-1,-7.649031E-1,4.6996247E-2,-1.1297679E-1,1.2294549E-1,2.7340734E-1,4.925156E-1,2.3825463E-2,-2.68161E-3,-2.985887E-3,-1.55731635E-2,-2.4111578E-2,-6.392997E-2,-1.2052936E-2,4.1975337E-3,-4.2702895E-2,-2.1585897E-3,2.0278133E-2,4.694684E-3,2.7153865E-2,1.025222E-2,4.040157E-3,2.6268473E-2],"categories":[],"categories_nodes":[],"categories_segments":[],"categories_sizes":[],"default_left":[0,0,0,0,0,0,0,0,0,0,0,0,0,0,0,0,0,0,0,0,0,0,0,0,0,0,0,0,0,0,0],"id":27,"left_children":[1,3,5,7,9,11,13,15,17,19,21,23,25,27,29,-1,-1,-1,-1,-1,-1,-1,-1,-1,-1,-1,-1,-1,-1,-1,-1],"loss_changes":[3.4224585E2,1.4814273E2,1.14982895E2,9.025113E1,6.193561E1,4.8768803E1,2.4429443E1,5.5542206E1,8.726657E1,1.3262581E1,5.8975883E1,5.2956005E1,4.974875E1,2.8631897E1,1.02495575E1,0E0,0E0,0E0,0E0,0E0,0E0,0E0,0E0,0E0,0E0,0E0,0E0,0E0,0E0,0E0,0E0],"parents":[2147483647,0,0,1,1,2,2,3,3,4,4,5,5,6,6,7,7,8,8,9,9,10,10,11,11,12,12,13,13,14,14],"right_children":[2,4,6,8,10,12,14,16,18,20,22,24,26,28,30,-1,-1,-1,-1,-1,-1,-1,-1,-1,-1,-1,-1,-1,-1,-1,-1],"split_conditions":[3.0247825E-1,2.0825832E-1,1.9119962E0,2.00001E0,-1.1077607E0,2.00001E0,3.5215142E0,2.00001E0,2.00001E0,2.00001E0,2.00001E0,-8.0203617E-1,2.00001E0,2.00001E0,2.00001E0,2.3825463E-2,-2.68161E-3,-2.985887E-3,-1.55731635E-2,-2.4111578E-2,-6.392997E-2,-1.2052936E-2,4.1975337E-3,-4.2702895E-2,-2.1585897E-3,2.0278133E-2,4.694684E-3,2.7153865E-2,1.025222E-2,4.040157E-3,2.6268473E-2],"split_indices":[6,0,6,24,3,54,6,144,131,121,149,0,154,102,159,0,0,0,0,0,0,0,0,0,0,0,0,0,0,0,0],"split_type":[0,0,0,0,0,0,0,0,0,0,0,0,0,0,0,0,0,0,0,0,0,0,0,0,0,0,0,0,0,0,0],"sum_hessian":[2.3773535E4,1.436936E4,9.404174E3,8.737388E3,5.6319727E3,7.086157E3,2.3180168E3,2.2473652E3,6.4900225E3,9.4581726E1,5.537391E3,1.0233899E3,6.062767E3,1.5581306E3,7.598863E2,2.1793292E2,2.0294324E3,1.983412E3,4.5066104E3,6.2260426E1,3.2321297E1,6.2898804E2,4.9084033E3,8.7131195E1,9.362587E2,5.639248E2,5.4988423E3,3.1370825E2,1.2444224E3,5.641194E1,7.0347437E2],"tree_param":{"num_deleted":"0","num_feature":"179","num_nodes":"31","size_leaf_vector":"1"}},{"base_weights":[9.715745E-3,-9.145945E-2,1.609485E-1,-1.7422251E-1,1.8294852E-2,1.3179381E-1,5.013715E-1,-4.0766656E-1,-1.3639954E-1,1.1637216E0,9.924937E-3,3.9298716E-1,1.0699537E-1,3.7418273E-1,6.423603E-1,-4.35909E-2,-1.5043803E-2,-1.3726397E-2,-1.6744568E-3,3.8883135E-2,7.320169E-2,-1.3628016E-2,1.9920054E-3,-1.340426E-2,2.1995628E-2,5.625588E-3,-5.0040163E-2,2.4735501E-2,6.2797096E-4,-3.651493E-3,3.7299477E-2],"categories":[],"categories_nodes":[],"categories_segments":[],"categories_sizes":[],"default_left":[0,0,0,0,0,0,0,0,0,0,0,0,0,0,0,0,0,0,0,0,0,0,0,0,0,0,0,0,0,0,0],"id":28,"left_children":[1,3,5,7,9,11,13,15,17,19,21,23,25,27,29,-1,-1,-1,-1,-1,-1,-1,-1,-1,-1,-1,-1,-1,-1,-1,-1],"loss_changes":[3.640146E2,1.294829E2,9.457858E1,7.169719E1,5.8745872E1,5.6861008E1,1.3243027E1,5.58759E1,9.942177E1,4.015045E0,5.143554E1,2.3737038E1,4.9152298E1,1.7327564E1,2.6388336E1,0E0,0E0,0E0,0E0,0E0,0E0,0E0,0E0,0E0,0E0,0E0,0E0,0E0,0E0,0E0,0E0],"parents":[2147483647,0,0,1,1,2,2,3,3,4,4,5,5,6,6,7,7,8,8,9,9,10,10,11,11,12,12,13,13,14,14],"right_children":[2,4,6,8,10,12,14,16,18,20,22,24,26,28,30,-1,-1,-1,-1,-1,-1,-1,-1,-1,-1,-1,-1,-1,-1,-1,-1],"split_conditions":[3.0247825E-1,2.00001E0,3.5215142E0,2.00001E0,2.00001E0,2.00001E0,8.3009917E-1,2.00001E0,-9.885396E-2,2.00001E0,2.00001E0,-8.0203617E-1,6.1878834E0,6.650555E-1,2.00001E0,-4.35909E-2,-1.5043803E-2,-1.3726397E-2,-1.6744568E-3,3.8883135E-2,7.320169E-2,-1.3628016E-2,1.9920054E-3,-1.340426E-2,2.1995628E-2,5.625588E-3,-5.0040163E-2,2.4735501E-2,6.2797096E-4,-3.651493E-3,3.7299477E-2],"split_indices":[6,27,6,139,35,154,5,119,1,158,149,0,4,1,138,0,0,0,0,0,0,0,0,0,0,0,0,0,0,0,0],"split_type":[0,0,0,0,0,0,0,0,0,0,0,0,0,0,0,0,0,0,0,0,0,0,0,0,0,0,0,0,0,0,0],"sum_hessian":[2.3788281E4,1.4253225E4,9.535058E3,8.1254395E3,6.1277847E3,8.784147E3,7.509095E2,1.131573E3,6.993866E3,4.3451054E1,6.0843335E3,7.603891E2,8.023759E3,3.9669608E2,3.542134E2,2.1031247E2,9.2126056E2,2.985287E3,4.0085793E3,2.0581953E1,2.28691E1,5.818533E2,5.5024805E3,5.0085472E1,7.1030365E2,7.9848955E3,3.886312E1,2.9725455E2,9.944152E1,4.4855396E1,3.09358E2],"tree_param":{"num_deleted":"0","num_feature":"179","num_nodes":"31","size_leaf_vector":"1"}},{"base_weights":[4.3062484E-3,-6.470622E-2,8.973378E-2,-2.3648219E-1,-2.4496306E-2,3.1319228E-1,5.170859E-2,-7.8203386E-1,-1.9840845E-1,-1.5176253E-1,3.0113762E-2,7.9188675E-1,2.5893843E-1,6.1994143E-2,4.7812007E-2,-6.060424E-2,-1.4733078E-2,2.4571652E-2,-1.1208867E-2,-4.1928827E-3,-2.1870025E-2,3.8892773E-3,-7.5632012E-3,5.7586737E-2,7.3415316E-3,1.571077E-2,-1.3135388E-2,1.5667142E-2,1.5188288E-3],"categories":[],"categories_nodes":[],"categories_segments":[],"categories_sizes":[],"default_left":[0,0,0,0,0,0,0,0,0,0,0,0,0,0,0,0,0,0,0,0,0,0,0,0,0,0,0,0,0],"id":29,"left_children":[1,3,5,7,9,11,13,15,17,19,21,23,25,-1,27,-1,-1,-1,-1,-1,-1,-1,-1,-1,-1,-1,-1,-1,-1],"loss_changes":[1.4019716E2,9.084915E1,9.027573E1,5.1667603E1,7.4091194E1,3.9922318E1,4.1989594E1,3.3685455E1,4.159173E1,6.2048782E1,6.451553E1,3.622828E1,4.0142456E1,0E0,4.1905125E1,0E0,0E0,0E0,0E0,0E0,0E0,0E0,0E0,0E0,0E0,0E0,0E0,0E0,0E0],"parents":[2147483647,0,0,1,1,2,2,3,3,4,4,5,5,6,6,7,7,8,8,9,9,10,10,11,11,12,12,14,14],"right_children":[2,4,6,8,10,12,14,16,18,20,22,24,26,-1,28,-1,-1,-1,-1,-1,-1,-1,-1,-1,-1,-1,-1,-1,-1],"split_conditions":[2.00001E0,2.00001E0,2.00001E0,2.00001E0,-3.5349044E-1,2.00001E0,2.00001E0,3.0856442E-1,2.00001E0,2.00001E0,2.00001E0,2.00001E0,2.2288473E0,6.1994143E-2,2.00001E0,-6.060424E-2,-1.4733078E-2,2.4571652E-2,-1.1208867E-2,-4.1928827E-3,-2.1870025E-2,3.8892773E-3,-7.5632012E-3,5.7586737E-2,7.3415316E-3,1.571077E-2,-1.3135388E-2,1.5667142E-2,1.5188288E-3],"split_indices":[27,22,102,162,1,31,28,1,147,53,51,177,0,0,31,0,0,0,0,0,0,0,0,0,0,0,0,0,0],"split_type":[0,0,0,0,0,0,0,0,0,0,0,0,0,0,0,0,0,0,0,0,0,0,0,0,0,0,0,0,0],"sum_hessian":[2.3778121E4,1.31528545E4,1.0625267E4,2.4939346E3,1.065892E4,1.5440834E3,9.081183E3,1.6142104E2,2.3325137E3,3.1999067E3,7.4590127E3,1.5580272E2,1.3882806E3,2.8647297E1,9.052535E3,8.496345E1,7.6457596E1,8.334227E1,2.2491714E3,2.5863467E3,6.135601E2,5.907031E3,1.5519822E3,9.950683E1,5.6295887E1,1.2556244E3,1.326563E2,5.567411E2,8.495795E3],"tree_param":{"num_deleted":"0","num_feature":"179","num_nodes":"29","size_leaf_vector":"1"}},{"base_weights":[1.05737075E-2,-4.7396768E-2,2.586579E-1,-1.2401989E-1,4.9242858E-2,2.0545992E-1,5.2085364E-1,-3.601216E-1,-8.6813375E-2,1.1119097E0,4.2281646E-2,3.9837536E-1,1.7969069E-1,4.4728178E-1,7.506624E-1,-3.4083977E-2,-9.762057E-3,-1.1085275E-2,5.1477016E-4,3.6388256E-2,6.580761E-2,2.0828517E-2,1.3102522E-3,6.4092414E-3,2.7775545E-2,1.0413712E-2,-3.6076896E-3,2.4743026E-2,4.5412867E-3,4.0238805E-2,1.6872453E-2],"categories":[],"categories_nodes":[],"categories_segments":[],"categories_sizes":[],"default_left":[0,0,0,0,0,0,0,0,0,0,0,0,0,0,0,0,0,0,0,0,0,0,0,0,0,0,0,0,0,0,0],"id":30,"left_children":[1,3,5,7,9,11,13,15,17,19,21,23,25,27,29,-1,-1,-1,-1,-1,-1,-1,-1,-1,-1,-1,-1,-1,-1,-1,-1],"loss_changes":[3.4146436E2,1.4252026E2,6.2621857E1,9.427112E1,6.2920433E1,1.852269E1,1.24785E1,7.733179E1,1.2149707E2,3.3854218E0,5.088147E1,1.8606712E1,2.3780579E1,9.733749E0,3.8052673E0,0E0,0E0,0E0,0E0,0E0,0E0,0E0,0E0,0E0,0E0,0E0,0E0,0E0,0E0,0E0,0E0],"parents":[2147483647,0,0,1,1,2,2,3,3,4,4,5,5,6,6,7,7,8,8,9,9,10,10,11,11,12,12,13,13,14,14],"right_children":[2,4,6,8,10,12,14,16,18,20,22,24,26,28,30,-1,-1,-1,-1,-1,-1,-1,-1,-1,-1,-1,-1,-1,-1,-1,-1],"split_conditions":[1.1072372E0,2.00001E0,3.5215142E0,2.00001E0,2.00001E0,2.00001E0,5.935791E0,-3.653026E-1,-9.885396E-2,2.00001E0,2.00001E0,2.00001E0,2.00001E0,1.5553176E0,1.3224689E0,-3.4083977E-2,-9.762057E-3,-1.1085275E-2,5.1477016E-4,3.6388256E-2,6.580761E-2,2.0828517E-2,1.3102522E-3,6.4092414E-3,2.7775545E-2,1.0413712E-2,-3.6076896E-3,2.4743026E-2,4.5412867E-3,4.0238805E-2,1.6872453E-2],"split_indices":[6,27,6,139,35,132,6,3,1,148,38,158,51,0,4,0,0,0,0,0,0,0,0,0,0,0,0,0,0,0,0],"split_type":[0,0,0,0,0,0,0,0,0,0,0,0,0,0,0,0,0,0,0,0,0,0,0,0,0,0,0,0,0,0,0],"sum_hessian":[2.3741354E4,1.924511E4,4.496245E3,1.0734061E4,8.511049E3,3.7393386E3,7.569065E2,1.460088E3,9.273972E3,5.4357452E1,8.456691E3,4.389302E2,3.3004084E3,5.755834E2,1.8132315E2,4.9384097E2,9.66247E2,3.8812761E3,5.3926963E3,2.0452698E1,3.3904755E1,3.4725006E2,8.1094414E3,1.6207027E2,2.7685992E2,2.964159E3,3.3624963E2,5.074607E2,6.8122665E1,1.5948914E2,2.1834015E1],"tree_param":{"num_deleted":"0","num_feature":"179","num_nodes":"31","size_leaf_vector":"1"}},{"base_weights":[5.539252E-3,-4.6987444E-2,2.3174687E-1,-1.2743893E-1,5.3956423E-2,1.8342566E-1,4.628407E-1,1.0438634E-3,-1.9098444E-1,-8.876486E-2,1.1398846E-1,1.8996188E-1,-3.7028126E-2,7.7411323E-3,5.1066756E-1,-1.4162687E-2,2.7798247E-3,1.8510992E-2,-1.0620227E-2,-4.6663698E-2,-1.7516607E-3,-4.370173E-2,6.217783E-3,2.5598487E-2,8.694481E-3,3.2023266E-2,-2.2245286E-2,1.2473174E-2,2.8887276E-2],"categories":[],"categories_nodes":[],"categories_segments":[],"categories_sizes":[],"default_left":[0,0,0,0,0,0,0,0,0,0,0,0,0,0,0,0,0,0,0,0,0,0,0,0,0,0,0,0,0],"id":31,"left_children":[1,3,5,7,9,11,13,15,17,19,21,23,-1,25,27,-1,-1,-1,-1,-1,-1,-1,-1,-1,-1,-1,-1,-1,-1],"loss_changes":[2.818106E2,1.5632265E2,4.9824844E1,8.7455185E1,7.315842E1,2.2475624E1,1.6805603E1,5.50059E1,8.623291E1,1.1469774E2,6.1670776E1,1.892038E1,0E0,2.1609642E1,1.2100052E1,0E0,0E0,0E0,0E0,0E0,0E0,0E0,0E0,0E0,0E0,0E0,0E0,0E0,0E0],"parents":[2147483647,0,0,1,1,2,2,3,3,4,4,5,5,6,6,7,7,8,8,9,9,10,10,11,11,13,13,14,14],"right_children":[2,4,6,8,10,12,14,16,18,20,22,24,-1,26,28,-1,-1,-1,-1,-1,-1,-1,-1,-1,-1,-1,-1,-1,-1],"split_conditions":[1.1072372E0,2.00001E0,3.5215142E0,2.00001E0,2.00001E0,6.1878834E0,2.00001E0,2.00001E0,2.00001E0,2.00001E0,2.00001E0,2.00001E0,-3.7028126E-2,2.00001E0,2.00001E0,-1.4162687E-2,2.7798247E-3,1.8510992E-2,-1.0620227E-2,-4.6663698E-2,-1.7516607E-3,-4.370173E-2,6.217783E-3,2.5598487E-2,8.694481E-3,3.2023266E-2,-2.2245286E-2,1.2473174E-2,2.8887276E-2],"split_indices":[6,27,6,131,39,4,36,161,147,136,32,20,0,104,141,0,0,0,0,0,0,0,0,0,0,0,0,0,0],"split_type":[0,0,0,0,0,0,0,0,0,0,0,0,0,0,0,0,0,0,0,0,0,0,0,0,0,0,0,0,0],"sum_hessian":[2.3715645E4,1.924714E4,4.4685034E3,1.0710606E4,8.536534E3,3.6972173E3,7.7128595E2,3.5446519E3,7.1659546E3,2.5273904E3,6.0091436E3,3.6720361E3,2.5181238E1,7.345757E1,6.9782837E2,5.699904E2,2.9746614E3,2.628564E2,6.903098E3,1.5020616E2,2.3771843E3,6.153335E1,5.94761E3,1.73101E2,3.498935E3,3.0461952E1,4.299562E1,1.435516E2,5.542768E2],"tree_param":{"num_deleted":"0","num_feature":"179","num_nodes":"29","size_leaf_vector":"1"}},{"base_weights":[1.2087831E-3,-8.906869E-2,1.3615537E-1,-2.62973E-1,-4.0773887E-2,7.7992E-2,3.150826E-1,-1.5059198E-1,-4.0084743E-1,3.9127246E-1,-5.80412E-2,6.178139E-1,6.918103E-2,2.8891572E-1,6.4295894E-1,5.0306935E-2,-8.549656E-3,-5.546689E-2,-1.7369738E-2,2.440822E-2,-3.5630364E-3,6.1324444E-3,-4.6943324E-3,4.504619E-3,4.5558173E-2,3.379951E-4,7.0954906E-3,1.4954208E-2,-1.8618576E-2,3.6360916E-2,1.17652295E-2],"categories":[],"categories_nodes":[],"categories_segments":[],"categories_sizes":[],"default_left":[0,0,0,0,0,0,0,0,0,0,0,0,0,0,0,0,0,0,0,0,0,0,0,0,0,0,0,0,0,0,0],"id":32,"left_children":[1,3,5,7,9,11,13,15,17,19,21,23,25,27,29,-1,-1,-1,-1,-1,-1,-1,-1,-1,-1,-1,-1,-1,-1,-1,-1],"loss_changes":[2.875558E2,1.1876808E2,9.8438E1,4.7564865E1,8.260704E1,3.3924667E1,1.9724655E1,4.0171795E1,5.186432E1,1.910608E1,6.896039E1,1.7653378E1,3.1904457E1,1.4575195E1,5.692337E0,0E0,0E0,0E0,0E0,0E0,0E0,0E0,0E0,0E0,0E0,0E0,0E0,0E0,0E0,0E0,0E0],"parents":[2147483647,0,0,1,1,2,2,3,3,4,4,5,5,6,6,7,7,8,8,9,9,10,10,11,11,12,12,13,13,14,14],"right_children":[2,4,6,8,10,12,14,16,18,20,22,24,26,28,30,-1,-1,-1,-1,-1,-1,-1,-1,-1,-1,-1,-1,-1,-1,-1,-1],"split_conditions":[3.0247825E-1,2.00001E0,1.9119962E0,2.00001E0,2.00001E0,2.00001E0,5.935791E0,2.00001E0,2.00001E0,2.00001E0,2.00001E0,2.5763714E-1,1.2966947E-1,4.566078E0,7.1598285E-1,5.0306935E-2,-8.549656E-3,-5.546689E-2,-1.7369738E-2,2.440822E-2,-3.5630364E-3,6.1324444E-3,-4.6943324E-3,4.504619E-3,4.5558173E-2,3.379951E-4,7.0954906E-3,1.4954208E-2,-1.8618576E-2,3.6360916E-2,1.17652295E-2],"split_indices":[6,119,6,127,31,19,6,40,139,10,36,1,3,4,1,0,0,0,0,0,0,0,0,0,0,0,0,0,0,0,0],"split_type":[0,0,0,0,0,0,0,0,0,0,0,0,0,0,0,0,0,0,0,0,0,0,0,0,0,0,0,0,0,0,0],"sum_hessian":[2.3601744E4,1.4141565E4,9.460179E3,3.0726914E3,1.1068874E4,7.14048E3,2.3196992E3,1.6940052E3,1.3786862E3,4.2454904E2,1.0644324E4,1.1356511E2,7.0269146E3,2.1499956E3,1.697038E2,2.852176E1,1.6654835E3,9.533337E1,1.2833528E3,3.509717E2,7.357733E1,1.7616681E3,8.882656E3,4.1041172E1,7.252394E1,3.7820107E3,3.2449038E3,2.1179758E3,3.201974E1,1.3998578E2,2.9718018E1],"tree_param":{"num_deleted":"0","num_feature":"179","num_nodes":"31","size_leaf_vector":"1"}},{"base_weights":[-2.7118826E-3,-9.3264915E-2,1.3295421E-1,3.5415113E-1,-1.0962405E-1,1.00944534E-1,3.4283403E-1,7.6241684E-1,2.771996E-1,-1.8908992E-1,-2.143588E-2,-2.6030406E-1,1.1409968E-1,2.2558163E-1,5.099354E-1,5.1307958E-2,2.5967836E-2,9.643185E-3,2.9784653E-2,-1.2832284E-2,2.7777716E-3,-5.2673038E-2,-8.410276E-4,1.6996892E-2,-2.4591034E-2,-7.709299E-4,7.843629E-3,-2.7150383E-2,1.2805144E-2,4.22693E-3,2.926091E-2],"categories":[],"categories_nodes":[],"categories_segments":[],"categories_sizes":[],"default_left":[0,0,0,0,0,0,0,0,0,0,0,0,0,0,0,0,0,0,0,0,0,0,0,0,0,0,0,0,0,0,0],"id":33,"left_children":[1,3,5,7,9,11,13,15,17,19,21,23,25,27,29,-1,-1,-1,-1,-1,-1,-1,-1,-1,-1,-1,-1,-1,-1,-1,-1],"loss_changes":[2.895625E2,1.0350091E2,6.3351517E1,1.5460796E1,9.556755E1,3.8940742E1,2.4339691E1,4.5020065E0,1.1201576E1,1.1857086E2,3.077677E1,4.0188812E1,4.3772263E1,1.73871E1,1.6407288E1,0E0,0E0,0E0,0E0,0E0,0E0,0E0,0E0,0E0,0E0,0E0,0E0,0E0,0E0,0E0,0E0],"parents":[2147483647,0,0,1,1,2,2,3,3,4,4,5,5,6,6,7,7,8,8,9,9,10,10,11,11,12,12,13,13,14,14],"right_children":[2,4,6,8,10,12,14,16,18,20,22,24,26,28,30,-1,-1,-1,-1,-1,-1,-1,-1,-1,-1,-1,-1,-1,-1,-1,-1],"split_conditions":[3.0247825E-1,2.00001E0,2.7167552E0,2.00001E0,8.242055E-1,2.00001E0,8.3009917E-1,2.00001E0,9.1969204E-1,5.4502314E-1,2.00001E0,-4.6527135E-1,-4.6527135E-1,-1.5757457E0,2.00001E0,5.1307958E-2,2.5967836E-2,9.643185E-3,2.9784653E-2,-1.2832284E-2,2.7777716E-3,-5.2673038E-2,-8.410276E-4,1.6996892E-2,-2.4591034E-2,-7.709299E-4,7.843629E-3,-2.7150383E-2,1.2805144E-2,4.22693E-3,2.926091E-2],"split_indices":[6,31,6,142,7,50,5,177,1,0,32,0,0,1,138,0,0,0,0,0,0,0,0,0,0,0,0,0,0,0,0],"split_type":[0,0,0,0,0,0,0,0,0,0,0,0,0,0,0,0,0,0,0,0,0,0,0,0,0,0,0,0,0,0,0],"sum_hessian":[2.3568447E4,1.4134443E4,9.434003E3,4.978478E2,1.3636596E4,8.1868687E3,1.247134E3,7.754193E1,4.2030588E2,7.1724214E3,6.4641743E3,2.8699588E2,7.8998726E3,7.34263E2,5.12871E2,3.5643585E1,4.189835E1,3.335805E2,8.672536E1,5.620376E3,1.5520457E3,2.7768017E1,6.4364062E3,7.9753784E1,2.072421E2,1.9613765E3,5.938496E3,2.7403158E1,7.0685986E2,7.743514E1,4.3543585E2],"tree_param":{"num_deleted":"0","num_feature":"179","num_nodes":"31","size_leaf_vector":"1"}},{"base_weights":[5.0521693E-3,-7.797955E-2,1.2914903E-1,5.26143E-1,-9.020014E-2,3.585042E-1,1.0178215E-1,6.5801126E-1,-1.6555054E-2,-1.5532364E-1,1.4093539E-2,8.0474144E-1,2.990651E-1,-6.0163945E-2,1.0653636E-1,1.3927071E-2,3.7745286E-2,-7.975255E-4,-1.1112529E-2,-4.0199514E-2,1.3839352E-3,4.5267563E-2,1.5247052E-2,-3.7892282E-3,1.7819306E-2,3.2604865E-3,1.2228376E-2],"categories":[],"categories_nodes":[],"categories_segments":[],"categories_sizes":[],"default_left":[0,0,0,0,0,0,0,0,0,0,0,0,0,0,0,0,0,0,0,0,0,0,0,0,0,0,0],"id":34,"left_children":[1,3,5,7,9,11,13,15,-1,17,19,21,23,-1,25,-1,-1,-1,-1,-1,-1,-1,-1,-1,-1,-1,-1],"loss_changes":[2.4313634E2,1.04419586E2,5.933557E1,3.192144E1,9.412435E1,2.6494186E1,5.256964E1,8.739174E0,0E0,7.9572266E1,5.923483E1,5.651848E0,1.9173088E1,0E0,4.8028236E1,0E0,0E0,0E0,0E0,0E0,0E0,0E0,0E0,0E0,0E0,0E0,0E0],"parents":[2147483647,0,0,1,1,2,2,3,3,4,4,5,5,6,6,7,7,9,9,10,10,11,11,12,12,14,14],"right_children":[2,4,6,8,10,12,14,16,-1,18,20,22,24,-1,26,-1,-1,-1,-1,-1,-1,-1,-1,-1,-1,-1,-1],"split_conditions":[3.0247825E-1,2.00001E0,2.00001E0,1.5553176E0,2.0825832E-1,2.00001E0,2.00001E0,2.00001E0,-1.6555054E-2,2.00001E0,-1.1077607E0,5.9264544E-3,2.00001E0,-6.0163945E-2,1.9119962E0,1.3927071E-2,3.7745286E-2,-7.975255E-4,-1.1112529E-2,-4.0199514E-2,1.3839352E-3,4.5267563E-2,1.5247052E-2,-3.7892282E-3,1.7819306E-2,3.2604865E-3,1.2228376E-2],"split_indices":[6,38,132,0,0,19,77,119,0,131,3,3,23,0,6,0,0,0,0,0,0,0,0,0,0,0,0],"split_type":[0,0,0,0,0,0,0,0,0,0,0,0,0,0,0,0,0,0,0,0,0,0,0,0,0,0,0],"sum_hessian":[2.3594385E4,1.4136317E4,9.458067E3,2.7945523E2,1.3856861E4,1.00695154E3,8.451116E3,2.4239975E2,3.705548E1,8.530021E3,5.326841E3,1.16887024E2,8.900645E2,2.9759815E1,8.421356E3,5.0093227E1,1.9230652E2,2.7676724E3,5.7623486E3,8.606262E1,5.240778E3,9.662498E1,2.0262045E1,1.1801103E2,7.7205347E2,6.4820874E3,1.939269E3],"tree_param":{"num_deleted":"0","num_feature":"179","num_nodes":"27","size_leaf_vector":"1"}},{"base_weights":[1.0523187E-3,-5.9061468E-2,7.4191235E-2,-9.5584966E-2,1.8596305E-1,4.616668E-1,5.835331E-2,-2.1149233E-1,-1.5731726E-2,2.1531823E-1,-5.2014965E-1,5.672218E-1,-7.367961E-2,-5.852905E-1,6.726607E-2,2.4517274E-2,-1.14127295E-2,-1.3033144E-2,1.288701E-3,5.3660344E-2,9.652036E-3,-4.9063735E-2,2.6118208E-2,3.61528E-2,1.4951579E-2,2.0929996E-2,-2.0004323E-2,-7.17911E-2,-1.2005369E-2,4.8396736E-2,3.0537772E-3],"categories":[],"categories_nodes":[],"categories_segments":[],"categories_sizes":[],"default_left":[0,0,0,0,0,0,0,0,0,0,0,0,0,0,0,0,0,0,0,0,0,0,0,0,0,0,0,0,0,0,0],"id":35,"left_children":[1,3,5,7,9,11,13,15,17,19,21,23,25,27,29,-1,-1,-1,-1,-1,-1,-1,-1,-1,-1,-1,-1,-1,-1,-1,-1],"loss_changes":[1.0357456E2,1.15731606E2,6.5191574E1,1.0415389E2,3.488722E1,2.3616539E1,5.8617626E1,5.4114532E1,6.775437E1,3.0589912E1,3.2844185E1,1.4352646E1,1.1350268E1,4.063162E1,5.6102196E1,0E0,0E0,0E0,0E0,0E0,0E0,0E0,0E0,0E0,0E0,0E0,0E0,0E0,0E0,0E0,0E0],"parents":[2147483647,0,0,1,1,2,2,3,3,4,4,5,5,6,6,7,7,8,8,9,9,10,10,11,11,12,12,13,13,14,14],"right_children":[2,4,6,8,10,12,14,16,18,20,22,24,26,28,30,-1,-1,-1,-1,-1,-1,-1,-1,-1,-1,-1,-1,-1,-1,-1,-1],"split_conditions":[2.00001E0,8.3009917E-1,2.00001E0,-9.885396E-2,2.00001E0,1.5553176E0,2.00001E0,2.00001E0,2.00001E0,2.00001E0,8.8178796E-1,2.00001E0,3.0856442E-1,2.00001E0,2.00001E0,2.4517274E-2,-1.14127295E-2,-1.3033144E-2,1.288701E-3,5.3660344E-2,9.652036E-3,-4.9063735E-2,2.6118208E-2,3.61528E-2,1.4951579E-2,2.0929996E-2,-2.0004323E-2,-7.17911E-2,-1.2005369E-2,4.8396736E-2,3.0537772E-3],"split_indices":[27,5,38,1,68,0,169,157,139,137,0,14,1,124,35,0,0,0,0,0,0,0,0,0,0,0,0,0,0,0,0],"split_type":[0,0,0,0,0,0,0,0,0,0,0,0,0,0,0,0,0,0,0,0,0,0,0,0,0,0,0,0,0,0,0],"sum_hessian":[2.3555576E4,1.2929144E4,1.0626432E4,1.1252456E4,1.6766879E3,4.1618942E2,1.0210242E4,4.5893477E3,6.6631084E3,1.6104325E3,6.625534E1,3.4759424E2,6.8595184E1,1.3857048E2,1.0071672E4,1.063933E2,4.482954E3,9.6474347E2,5.6983647E3,3.9566944E1,1.5708656E3,4.597736E1,2.0277979E1,2.1877637E2,1.2881789E2,2.7236006E1,4.135918E1,3.9090897E1,9.9479576E1,6.769209E1,1.00039795E4],"tree_param":{"num_deleted":"0","num_feature":"179","num_nodes":"31","size_leaf_vector":"1"}},{"base_weights":[5.6147506E-3,-4.1884094E-2,2.0862451E-1,-1.9260995E-1,-4.728668E-3,1.7108347E-1,4.0791985E-1,2.8137124E-1,-2.4069968E-1,-1.2723109E-1,2.7807165E-2,2.6447552E-1,1.0352753E-1,4.3737411E-1,-1.618273E-2,2.809745E-2,4.3875347E-3,3.0300533E-2,-1.3293958E-2,-1.628876E-3,-1.3873592E-2,2.293539E-2,7.560108E-4,1.2107466E-2,3.9011814E-2,-2.4356896E-3,8.345941E-3,1.9845238E-2,4.6683934E-2],"categories":[],"categories_nodes":[],"categories_segments":[],"categories_sizes":[],"default_left":[0,0,0,0,0,0,0,0,0,0,0,0,0,0,0,0,0,0,0,0,0,0,0,0,0,0,0,0,0],"id":36,"left_children":[1,3,5,7,9,11,13,15,17,19,21,23,25,27,-1,-1,-1,-1,-1,-1,-1,-1,-1,-1,-1,-1,-1,-1,-1],"loss_changes":[2.2747545E2,1.070625E2,3.3395767E1,8.624252E1,6.113586E1,2.3730919E1,1.5403725E1,1.889457E1,7.3350555E1,4.57668E1,6.62504E1,1.8004158E1,2.1111654E1,1.3313431E1,0E0,0E0,0E0,0E0,0E0,0E0,0E0,0E0,0E0,0E0,0E0,0E0,0E0,0E0,0E0],"parents":[2147483647,0,0,1,1,2,2,3,3,4,4,5,5,6,6,7,7,8,8,9,9,10,10,11,11,12,12,13,13],"right_children":[2,4,6,8,10,12,14,16,18,20,22,24,26,28,-1,-1,-1,-1,-1,-1,-1,-1,-1,-1,-1,-1,-1,-1,-1],"split_conditions":[1.1072372E0,-7.235778E-1,3.5215142E0,2.00001E0,2.00001E0,8.242055E-1,1.5725968E0,2.00001E0,2.00001E0,2.00001E0,2.00001E0,1.5308197E0,2.00001E0,8.350068E0,-1.618273E-2,2.809745E-2,4.3875347E-3,3.0300533E-2,-1.3293958E-2,-1.628876E-3,-1.3873592E-2,2.293539E-2,7.560108E-4,1.2107466E-2,3.9011814E-2,-2.4356896E-3,8.345941E-3,1.9845238E-2,4.6683934E-2],"split_indices":[6,7,6,36,119,7,2,24,31,121,147,1,151,6,0,0,0,0,0,0,0,0,0,0,0,0,0,0,0],"split_type":[0,0,0,0,0,0,0,0,0,0,0,0,0,0,0,0,0,0,0,0,0,0,0,0,0,0,0,0,0],"sum_hessian":[2.3588453E4,1.9116498E4,4.4719546E3,3.7796538E3,1.5336844E4,3.764667E3,7.072879E2,3.4770996E2,3.4319438E3,3.2179304E3,1.2118914E4,1.5789487E3,2.1857183E3,6.803002E2,2.6987751E1,1.4119717E2,2.0651277E2,9.844562E1,3.3334983E3,1.9749215E3,1.2430088E3,3.4560483E2,1.1773309E4,1.5148438E3,6.410494E1,6.426215E2,1.5430967E3,6.306738E2,4.9626305E1],"tree_param":{"num_deleted":"0","num_feature":"179","num_nodes":"29","size_leaf_vector":"1"}},{"base_weights":[8.987963E-3,-6.318738E-2,1.1785862E-1,-2.6399633E-1,-2.578921E-2,6.9712475E-2,2.6901284E-1,-4.3640143E-1,-8.764082E-2,-1.3126859E-1,2.084352E-2,-4.9582034E-2,7.409805E-2,2.5476635E-1,8.8683647E-1,-3.8696356E-2,-1.562634E-2,-1.6661657E-2,3.3869937E-3,1.2885283E-2,-8.913611E-3,-5.4355513E-2,1.2527532E-3,4.145146E-3,-1.9629043E-2,1.3175132E-2,-3.280446E-2,5.6946494E-2,2.8399026E-2],"categories":[],"categories_nodes":[],"categories_segments":[],"categories_sizes":[],"default_left":[0,0,0,0,0,0,0,0,0,0,0,0,0,0,0,0,0,0,0,0,0,0,0,0,0,0,0,0,0],"id":37,"left_children":[1,3,5,7,9,11,13,15,17,19,21,-1,23,25,27,-1,-1,-1,-1,-1,-1,-1,-1,-1,-1,-1,-1,-1,-1],"loss_changes":[1.8541885E2,1.0655757E2,6.844087E1,6.769348E1,5.88472E1,3.3288406E1,1.977324E1,4.684578E1,4.2093376E1,6.71027E1,3.874042E1,0E0,2.9237339E1,1.7857208E1,3.4373093E0,0E0,0E0,0E0,0E0,0E0,0E0,0E0,0E0,0E0,0E0,0E0,0E0,0E0,0E0],"parents":[2147483647,0,0,1,1,2,2,3,3,4,4,5,5,6,6,7,7,8,8,9,9,10,10,12,12,13,13,14,14],"right_children":[2,4,6,8,10,12,14,16,18,20,22,-1,24,26,28,-1,-1,-1,-1,-1,-1,-1,-1,-1,-1,-1,-1,-1,-1],"split_conditions":[3.0247825E-1,2.00001E0,1.9119962E0,2.00001E0,-2.0765004E-1,2.00001E0,8.350068E0,-1.4978126E-1,-4.0441775E-1,2.00001E0,2.00001E0,-4.9582034E-2,3.755176E0,5.376981E0,2.00001E0,-3.8696356E-2,-1.562634E-2,-1.6661657E-2,3.3869937E-3,1.2885283E-2,-8.913611E-3,-5.4355513E-2,1.2527532E-3,4.145146E-3,-1.9629043E-2,1.3175132E-2,-3.280446E-2,5.6946494E-2,2.8399026E-2],"split_indices":[6,22,6,121,7,77,6,1,1,36,32,0,4,4,148,0,0,0,0,0,0,0,0,0,0,0,0,0,0],"split_type":[0,0,0,0,0,0,0,0,0,0,0,0,0,0,0,0,0,0,0,0,0,0,0,0,0,0,0,0,0],"sum_hessian":[2.359491E4,1.4188874E4,9.406035E3,2.2266814E3,1.1962192E4,7.134873E3,2.2711624E3,1.1252059E3,1.1014756E3,3.666671E3,8.295521E3,2.8434034E1,7.106439E3,2.221352E3,4.9810173E1,3.006813E2,8.2452466E2,4.2638828E2,6.750873E2,3.9482764E2,3.2718433E3,3.0439756E1,8.265082E3,6.9756514E3,1.3078783E2,2.200953E3,2.0399256E1,2.6380968E1,2.3429207E1],"tree_param":{"num_deleted":"0","num_feature":"179","num_nodes":"29","size_leaf_vector":"1"}},{"base_weights":[3.3681623E-3,-6.857942E-2,1.1267221E-1,-2.1376154E-1,-2.8248077E-2,8.585974E-2,2.9418683E-1,-3.4685504E-1,-5.8119025E-2,-6.481973E-1,-1.7861292E-2,1.0209406E-1,-1.6323465E-1,1.8246195E-1,4.553036E-1,3.609585E-2,-1.9012729E-2,-2.0071333E-3,-5.603232E-2,-7.4484097E-3,-4.3782037E-2,2.174578E-2,-1.4724779E-3,9.365512E-4,7.5833984E-3,-3.3733644E-2,-1.5540278E-3,1.2955646E-2,-1.4887089E-2,9.445147E-3,2.6865164E-2],"categories":[],"categories_nodes":[],"categories_segments":[],"categories_sizes":[],"default_left":[0,0,0,0,0,0,0,0,0,0,0,0,0,0,0,0,0,0,0,0,0,0,0,0,0,0,0,0,0,0,0],"id":38,"left_children":[1,3,5,7,9,11,13,15,17,19,21,23,25,27,29,-1,-1,-1,-1,-1,-1,-1,-1,-1,-1,-1,-1,-1,-1,-1,-1],"loss_changes":[1.8483156E2,8.2985664E1,4.5379974E1,6.3807617E1,7.142144E1,3.289402E1,2.1523697E1,5.9556763E1,2.7106243E1,2.062236E1,5.7264637E1,3.1542862E1,3.3626953E1,2.6228487E1,1.0620972E1,0E0,0E0,0E0,0E0,0E0,0E0,0E0,0E0,0E0,0E0,0E0,0E0,0E0,0E0,0E0,0E0],"parents":[2147483647,0,0,1,1,2,2,3,3,4,4,5,5,6,6,7,7,8,8,9,9,10,10,11,11,12,12,13,13,14,14],"right_children":[2,4,6,8,10,12,14,16,18,20,22,24,26,28,30,-1,-1,-1,-1,-1,-1,-1,-1,-1,-1,-1,-1,-1,-1,-1,-1],"split_conditions":[3.0247825E-1,2.00001E0,2.7167552E0,8.242055E-1,-1.3552467E0,2.2288473E0,8.3009917E-1,2.00001E0,1.938238E0,2.00001E0,2.00001E0,-2.4155958E-1,2.00001E0,9.706193E-1,-4.6527135E-1,3.609585E-2,-1.9012729E-2,-2.0071333E-3,-5.603232E-2,-7.4484097E-3,-4.3782037E-2,2.174578E-2,-1.4724779E-3,9.365512E-4,7.5833984E-3,-3.3733644E-2,-1.5540278E-3,1.2955646E-2,-1.4887089E-2,9.445147E-3,2.6865164E-2],"split_indices":[6,119,6,7,3,0,5,31,1,122,147,3,126,1,0,0,0,0,0,0,0,0,0,0,0,0,0,0,0,0,0],"split_type":[0,0,0,0,0,0,0,0,0,0,0,0,0,0,0,0,0,0,0,0,0,0,0,0,0,0,0,0,0,0,0],"sum_hessian":[2.3501037E4,1.4172559E4,9.3284795E3,3.080234E3,1.1092324E4,8.1291533E3,1.1993264E3,1.6597311E3,1.4205028E3,1.817694E2,1.0910555E4,7.6323193E3,4.968339E2,7.0947815E2,4.8984833E2,4.9670765E1,1.6100603E3,1.3978904E3,2.2612411E1,5.7410545E1,1.2435885E2,2.7136206E2,1.0639193E4,2.8467043E3,4.7856147E3,1.0117604E2,3.9565787E2,6.122156E2,9.726254E1,1.1606851E2,3.7377982E2],"tree_param":{"num_deleted":"0","num_feature":"179","num_nodes":"31","size_leaf_vector":"1"}},{"base_weights":[9.185542E-4,-7.1261354E-2,1.0882955E-1,-1.4011411E-1,4.620973E-3,4.9663618E-1,9.5803104E-2,4.7481197E-1,-1.598548E-1,4.9067032E-1,-7.900623E-3,6.425269E-1,1.1528328E-1,7.608782E-2,3.4026924E-1,3.723313E-2,3.908259E-3,-5.1311264E-3,-1.7885791E-2,3.189534E-2,-1.0649768E-2,-1.635023E-3,1.12127345E-2,1.2683461E-2,3.82939E-2,-3.8297147E-2,2.1880161E-2,2.3555733E-2,3.2186278E-3,1.5183926E-2,4.0657394E-2],"categories":[],"categories_nodes":[],"categories_segments":[],"categories_sizes":[],"default_left":[0,0,0,0,0,0,0,0,0,0,0,0,0,0,0,0,0,0,0,0,0,0,0,0,0,0,0,0,0,0,0],"id":39,"left_children":[1,3,5,7,9,11,13,15,17,19,21,23,25,27,29,-1,-1,-1,-1,-1,-1,-1,-1,-1,-1,-1,-1,-1,-1,-1,-1],"loss_changes":[1.8259474E2,7.339158E1,4.7417244E1,8.9475204E1,4.0679188E1,1.6900848E1,4.3793182E1,2.4487202E1,8.0774734E1,1.7527744E1,3.7525127E1,1.0380516E1,2.4661032E1,3.8910313E1,1.1487953E1,0E0,0E0,0E0,0E0,0E0,0E0,0E0,0E0,0E0,0E0,0E0,0E0,0E0,0E0,0E0,0E0],"parents":[2147483647,0,0,1,1,2,2,3,3,4,4,5,5,6,6,7,7,8,8,9,9,10,10,11,11,12,12,13,13,14,14],"right_children":[2,4,6,8,10,12,14,16,18,20,22,24,26,28,30,-1,-1,-1,-1,-1,-1,-1,-1,-1,-1,-1,-1,-1,-1,-1,-1],"split_conditions":[3.0247825E-1,8.242055E-1,2.00001E0,2.00001E0,2.00001E0,4.1041905E-1,3.5215142E0,2.00001E0,2.00001E0,2.00001E0,8.3009917E-1,-6.127886E-1,5.9264544E-3,2.00001E0,8.350068E0,3.723313E-2,3.908259E-3,-5.1311264E-3,-1.7885791E-2,3.189534E-2,-1.0649768E-2,-1.635023E-3,1.12127345E-2,1.2683461E-2,3.82939E-2,-3.8297147E-2,2.1880161E-2,2.3555733E-2,3.2186278E-3,1.5183926E-2,4.0657394E-2],"split_indices":[6,7,147,31,157,1,6,127,120,10,5,3,3,30,6,0,0,0,0,0,0,0,0,0,0,0,0,0,0,0,0],"split_type":[0,0,0,0,0,0,0,0,0,0,0,0,0,0,0,0,0,0,0,0,0,0,0,0,0,0,0,0,0,0,0],"sum_hessian":[2.3440627E4,1.40458955E4,9.394731E3,7.363598E3,6.682298E3,3.041076E2,9.090624E3,2.283204E2,7.135278E3,1.6686668E2,6.515431E3,2.194643E2,8.464332E1,8.413424E3,6.772001E2,1.3535617E2,9.2964226E1,5.5355977E3,1.5996802E3,1.3807007E2,2.8796616E1,5.887375E3,6.2805585E2,5.3587887E1,1.658764E2,2.2299606E1,6.234371E1,2.4119972E2,8.172224E3,6.300869E2,4.7113132E1],"tree_param":{"num_deleted":"0","num_feature":"179","num_nodes":"31","size_leaf_vector":"1"}},{"base_weights":[-1.673172E-3,-4.1372288E-2,1.7095828E-1,-2.6677236E-1,-2.036131E-2,1.8100487E-1,-5.1361495E-1,-7.8078276E-1,-2.1840623E-1,4.5225808E-1,-2.9496197E-2,3.702817E-1,1.5332176E-1,-1.2673713E-3,-5.116385E-2,-3.6715735E-3,-5.564021E-2,-2.4071654E-2,-5.4247235E-3,8.221709E-3,3.50178E-2,-8.530231E-3,-1.9195775E-4,2.2438776E-2,-1.646912E-2,2.6702687E-2,6.9216774E-3],"categories":[],"categories_nodes":[],"categories_segments":[],"categories_sizes":[],"default_left":[0,0,0,0,0,0,0,0,0,0,0,0,0,0,0,0,0,0,0,0,0,0,0,0,0,0,0],"id":40,"left_children":[1,3,5,7,9,11,13,15,17,19,21,23,25,-1,-1,-1,-1,-1,-1,-1,-1,-1,-1,-1,-1,-1,-1],"loss_changes":[1.6064803E2,9.025171E1,3.0235626E1,4.0227333E1,7.528245E1,2.2579361E1,1.5813364E1,3.2648743E1,4.2925148E1,2.3495605E1,6.1925102E1,3.038166E1,2.1299126E1,0E0,0E0,0E0,0E0,0E0,0E0,0E0,0E0,0E0,0E0,0E0,0E0,0E0,0E0],"parents":[2147483647,0,0,1,1,2,2,3,3,4,4,5,5,6,6,7,7,8,8,9,9,10,10,11,11,12,12],"right_children":[2,4,6,8,10,12,14,16,18,20,22,24,26,-1,-1,-1,-1,-1,-1,-1,-1,-1,-1,-1,-1,-1,-1],"split_conditions":[1.1072372E0,-1.2395055E0,4.566078E0,2.00001E0,2.00001E0,2.00001E0,-1.9236653E-1,2.00001E0,-9.8401767E-1,2.00001E0,2.00001E0,1.3224689E0,2.00001E0,-1.2673713E-3,-5.116385E-2,-3.6715735E-3,-5.564021E-2,-2.4071654E-2,-5.4247235E-3,8.221709E-3,3.50178E-2,-8.530231E-3,-1.9195775E-4,2.2438776E-2,-1.646912E-2,2.6702687E-2,6.9216774E-3],"split_indices":[6,7,4,136,38,132,2,24,3,103,22,4,147,0,0,0,0,0,0,0,0,0,0,0,0,0,0],"split_type":[0,0,0,0,0,0,0,0,0,0,0,0,0,0,0,0,0,0,0,0,0,0,0,0,0,0,0],"sum_hessian":[2.3438885E4,1.9057172E4,4.3817134E3,1.6239696E3,1.7433201E4,4.319064E3,6.2649643E1,1.3836406E2,1.4856056E3,3.2964355E2,1.7103559E4,5.49514E2,3.76955E3,3.253251E1,3.0117134E1,4.4589664E1,9.377439E1,4.3683868E2,1.0487668E3,1.533739E2,1.7626967E2,2.6305312E3,1.4473026E4,4.944062E2,5.5107773E1,1.4054562E2,3.6290044E3],"tree_param":{"num_deleted":"0","num_feature":"179","num_nodes":"27","size_leaf_vector":"1"}},{"base_weights":[1.1381374E-2,-2.1823341E-2,1.5865575E-1,-1.8168767E-1,1.637771E-2,1.2467921E-1,3.4089336E-1,-1.3460567E-2,-2.4986032E-1,-2.6321423E-1,2.8402943E-2,3.2692793E-1,9.776418E-2,3.079094E-1,7.893074E-1,3.811376E-2,-2.8526005E-3,-1.6146867E-2,-3.0593115E-3,-3.0851994E-2,2.8446252E-3,-3.6895026E-3,2.7895947E-3,1.9136941E-2,-2.6986962E-2,6.379635E-3,-8.745805E-3,-2.035193E-3,1.674282E-2,4.728707E-2,2.9425642E-2],"categories":[],"categories_nodes":[],"categories_segments":[],"categories_sizes":[],"default_left":[0,0,0,0,0,0,0,0,0,0,0,0,0,0,0,0,0,0,0,0,0,0,0,0,0,0,0,0,0,0,0],"id":41,"left_children":[1,3,5,7,9,11,13,15,17,19,21,23,25,27,29,-1,-1,-1,-1,-1,-1,-1,-1,-1,-1,-1,-1,-1,-1,-1,-1],"loss_changes":[1.153495E2,1.17553E2,2.6828117E1,4.2573944E1,5.2245003E1,1.9887722E1,9.834869E0,3.628272E1,3.6405685E1,7.2611435E1,4.170054E1,2.0974373E1,2.6301926E1,5.99139E0,8.8978577E-1,0E0,0E0,0E0,0E0,0E0,0E0,0E0,0E0,0E0,0E0,0E0,0E0,0E0,0E0,0E0,0E0],"parents":[2147483647,0,0,1,1,2,2,3,3,4,4,5,5,6,6,7,7,8,8,9,9,10,10,11,11,12,12,13,13,14,14],"right_children":[2,4,6,8,10,12,14,16,18,20,22,24,26,28,30,-1,-1,-1,-1,-1,-1,-1,-1,-1,-1,-1,-1,-1,-1,-1,-1],"split_conditions":[1.1072372E0,-7.235778E-1,3.5215142E0,2.00001E0,2.00001E0,2.00001E0,8.350068E0,2.00001E0,4.6134633E-1,2.00001E0,2.00001E0,2.133371E0,2.00001E0,2.00001E0,3.0006396E-3,3.811376E-2,-2.8526005E-3,-1.6146867E-2,-3.0593115E-3,-3.0851994E-2,2.8446252E-3,-3.6895026E-3,2.7895947E-3,1.9136941E-2,-2.6986962E-2,6.379635E-3,-8.745805E-3,-2.035193E-3,1.674282E-2,4.728707E-2,2.9425642E-2],"split_indices":[6,7,6,131,136,132,6,48,1,103,119,4,51,159,1,0,0,0,0,0,0,0,0,0,0,0,0,0,0,0,0],"split_type":[0,0,0,0,0,0,0,0,0,0,0,0,0,0,0,0,0,0,0,0,0,0,0,0,0,0,0,0,0,0,0],"sum_hessian":[2.3586164E4,1.9247453E4,4.3387095E3,3.7115496E3,1.5535904E4,3.6583313E3,6.803785E2,1.0706771E3,2.6408726E3,6.397829E2,1.4896121E4,4.2835773E2,3.2299734E3,6.353321E2,4.5046375E1,5.6087086E1,1.01459E3,1.9030674E3,7.378051E2,3.0344568E2,3.363372E2,3.1481448E3,1.1747977E4,4.0296625E2,2.5391481E1,2.9119653E3,3.180081E2,4.554936E1,5.897827E2,2.3234768E1,2.1811607E1],"tree_param":{"num_deleted":"0","num_feature":"179","num_nodes":"31","size_leaf_vector":"1"}},{"base_weights":[4.7049806E-3,-4.724522E-2,8.402854E-2,3.418491E-1,-6.141385E-2,2.9163268E-1,5.8943383E-2,-9.282042E-2,4.0630263E-1,-1.0874242E-1,5.6502115E-2,9.5310134E-1,2.5073832E-1,2.756889E-1,3.8529724E-2,-4.128173E-2,1.7230464E-2,2.2969307E-2,-5.962369E-3,1.1587903E-3,-8.558078E-3,-1.0829346E-2,4.694505E-3,3.0137686E-2,5.9785344E-2,3.2285545E-2,1.0606208E-2,1.6228132E-3,1.8276898E-2,3.4307283E-3,-5.8141653E-3],"categories":[],"categories_nodes":[],"categories_segments":[],"categories_sizes":[],"default_left":[0,0,0,0,0,0,0,0,0,0,0,0,0,0,0,0,0,0,0,0,0,0,0,0,0,0,0,0,0,0,0],"id":42,"left_children":[1,3,5,7,9,11,13,15,17,19,21,23,25,27,29,-1,-1,-1,-1,-1,-1,-1,-1,-1,-1,-1,-1,-1,-1,-1,-1],"loss_changes":[9.651222E1,7.804022E1,4.8250237E1,1.3972408E1,7.621553E1,2.6782196E1,3.6582344E1,2.1134344E1,1.21441345E1,8.024486E1,3.996127E1,4.192421E0,1.4231766E1,1.5542202E1,3.52174E1,0E0,0E0,0E0,0E0,0E0,0E0,0E0,0E0,0E0,0E0,0E0,0E0,0E0,0E0,0E0,0E0],"parents":[2147483647,0,0,1,1,2,2,3,3,4,4,5,5,6,6,7,7,8,8,9,9,10,10,11,11,12,12,13,13,14,14],"right_children":[2,4,6,8,10,12,14,16,18,20,22,24,26,28,30,-1,-1,-1,-1,-1,-1,-1,-1,-1,-1,-1,-1,-1,-1,-1,-1],"split_conditions":[3.0247825E-1,2.00001E0,2.00001E0,2.00001E0,5.4502314E-1,2.00001E0,2.00001E0,2.00001E0,5.1156646E-1,2.00001E0,2.00001E0,5.9264544E-3,2.00001E0,-2.4155958E-1,2.00001E0,-4.128173E-2,1.7230464E-2,2.2969307E-2,-5.962369E-3,1.1587903E-3,-8.558078E-3,-1.0829346E-2,4.694505E-3,3.0137686E-2,5.9785344E-2,3.2285545E-2,1.0606208E-2,1.6228132E-3,1.8276898E-2,3.4307283E-3,-5.8141653E-3],"split_indices":[6,31,132,130,0,152,154,121,4,131,149,3,153,3,53,0,0,0,0,0,0,0,0,0,0,0,0,0,0,0,0],"split_type":[0,0,0,0,0,0,0,0,0,0,0,0,0,0,0,0,0,0,0,0,0,0,0,0,0,0,0,0,0,0,0],"sum_hessian":[2.3418361E4,1.4151037E4,9.267324E3,4.963836E2,1.3654653E4,9.979219E2,8.269402E3,6.404296E1,4.3234064E2,9.743807E3,3.9108472E3,5.6804203E1,9.411177E2,7.1071893E2,7.5586836E3,2.3607119E1,4.043584E1,3.927923E2,3.9548332E1,3.1298108E3,6.613996E3,4.703714E2,3.4404758E3,2.466699E1,3.2137215E1,8.241343E1,8.587043E2,1.9208423E2,5.186347E2,6.329272E3,1.2294119E3],"tree_param":{"num_deleted":"0","num_feature":"179","num_nodes":"31","size_leaf_vector":"1"}},{"base_weights":[-1.0769591E-2,-7.827178E-2,9.046681E-2,3.1100544E-1,-9.253486E-2,3.0717608E-1,6.419192E-2,3.9117146E-1,-7.029886E-2,-2.7105242E-1,-5.922011E-2,7.193986E-1,2.5329563E-1,2.5194345E-2,1.9522688E-1,3.0701263E-2,1.32286195E-2,-3.827568E-2,8.757139E-3,2.9956052E-2,-1.469247E-2,-9.847628E-3,-1.035478E-3,4.0614106E-2,1.5140483E-2,1.11136595E-2,4.833177E-2,-4.364982E-2,1.5672103E-3,-2.3789644E-2,1.0358626E-2],"categories":[],"categories_nodes":[],"categories_segments":[],"categories_sizes":[],"default_left":[0,0,0,0,0,0,0,0,0,0,0,0,0,0,0,0,0,0,0,0,0,0,0,0,0,0,0,0,0,0,0],"id":43,"left_children":[1,3,5,7,9,11,13,15,17,19,21,23,25,27,29,-1,-1,-1,-1,-1,-1,-1,-1,-1,-1,-1,-1,-1,-1,-1,-1],"loss_changes":[1.5953711E2,7.7796486E1,5.315818E1,1.5167175E1,8.034419E1,2.2242401E1,4.2565044E1,1.1387882E1,1.4960137E1,4.2325714E1,6.0401516E1,4.2490425E0,1.9579193E1,3.5496044E1,1.5412796E1,0E0,0E0,0E0,0E0,0E0,0E0,0E0,0E0,0E0,0E0,0E0,0E0,0E0,0E0,0E0,0E0],"parents":[2147483647,0,0,1,1,2,2,3,3,4,4,5,5,6,6,7,7,8,8,9,9,10,10,11,11,12,12,13,13,14,14],"right_children":[2,4,6,8,10,12,14,16,18,20,22,24,26,28,30,-1,-1,-1,-1,-1,-1,-1,-1,-1,-1,-1,-1,-1,-1,-1,-1],"split_conditions":[3.0247825E-1,2.00001E0,2.00001E0,2.00001E0,2.00001E0,2.00001E0,1.9119962E0,2.00001E0,-1.9236653E-1,2.00001E0,2.00001E0,2.00001E0,1.8873107E0,2.00001E0,2.00001E0,3.0701263E-2,1.32286195E-2,-3.827568E-2,8.757139E-3,2.9956052E-2,-1.469247E-2,-9.847628E-3,-1.035478E-3,4.0614106E-2,1.5140483E-2,1.11136595E-2,4.833177E-2,-4.364982E-2,1.5672103E-3,-2.3789644E-2,1.0358626E-2],"split_indices":[6,31,132,10,22,19,6,131,2,38,119,51,1,168,26,0,0,0,0,0,0,0,0,0,0,0,0,0,0,0,0],"split_type":[0,0,0,0,0,0,0,0,0,0,0,0,0,0,0,0,0,0,0,0,0,0,0,0,0,0,0,0,0,0,0],"sum_hessian":[2.3343678E4,1.4005408E4,9.33827E3,4.9428418E2,1.3511124E4,1.00862964E3,8.32964E3,4.083964E2,8.5887764E1,2.1237651E3,1.1387359E4,1.1516748E2,8.934622E2,6.420125E3,1.9095144E3,1.465582E2,2.618382E2,2.1857464E1,6.4030304E1,5.3573013E1,2.0701921E3,2.487333E3,8.900026E3,9.339427E1,2.1773203E1,8.5748267E2,3.5979504E1,4.2700768E1,6.3774243E3,3.2719852E1,1.8767946E3],"tree_param":{"num_deleted":"0","num_feature":"179","num_nodes":"31","size_leaf_vector":"1"}},{"base_weights":[-1.1836926E-2,-4.6121076E-2,1.3849598E-1,-2.1231131E-1,-6.393715E-3,-5.2843906E-2,1.4527217E-1,1.4020637E-1,-2.4682361E-1,9.7515404E-1,-9.6938815E-3,6.358858E-1,1.3342276E-1,-4.342822E-2,1.19272E-2,2.2621717E-2,-1.3359055E-2,3.3289976E-2,6.249742E-2,1.3715959E-2,-9.658852E-4,4.7540907E-2,1.9239027E-2,6.9728545E-3,-3.9543E-2],"categories":[],"categories_nodes":[],"categories_segments":[],"categories_sizes":[],"default_left":[0,0,0,0,0,0,0,0,0,0,0,0,0,0,0,0,0,0,0,0,0,0,0,0,0],"id":44,"left_children":[1,3,5,7,9,-1,11,13,15,17,19,21,23,-1,-1,-1,-1,-1,-1,-1,-1,-1,-1,-1,-1],"loss_changes":[1.1949065E2,1.24638794E2,3.5027267E1,4.4345444E1,4.936676E1,0E0,2.480832E1,3.2488304E1,4.734903E1,3.5090752E0,4.1516052E1,7.5987854E0,2.3436531E1,0E0,0E0,0E0,0E0,0E0,0E0,0E0,0E0,0E0,0E0,0E0,0E0],"parents":[2147483647,0,0,1,1,2,2,3,3,4,4,6,6,7,7,8,8,9,9,10,10,11,11,12,12],"right_children":[2,4,6,8,10,-1,12,14,16,18,20,22,24,-1,-1,-1,-1,-1,-1,-1,-1,-1,-1,-1,-1],"split_conditions":[1.1072372E0,-7.235778E-1,2.00001E0,2.00001E0,2.00001E0,-5.2843906E-2,2.00001E0,-9.8401767E-1,2.00001E0,2.00001E0,2.00001E0,-2.0765004E-1,6.1878834E0,-4.342822E-2,1.19272E-2,2.2621717E-2,-1.3359055E-2,3.3289976E-2,6.249742E-2,1.3715959E-2,-9.658852E-4,4.7540907E-2,1.9239027E-2,6.9728545E-3,-3.9543E-2],"split_indices":[6,7,172,36,35,0,45,3,31,158,31,7,4,0,0,0,0,0,0,0,0,0,0,0,0],"split_type":[0,0,0,0,0,0,0,0,0,0,0,0,0,0,0,0,0,0,0,0,0,0,0,0,0],"sum_hessian":[2.3181656E4,1.8877291E4,4.3043647E3,3.6411284E3,1.5236163E4,2.3388948E1,4.280976E3,3.2441412E2,3.3167144E3,5.0068672E1,1.5186095E4,9.9714714E1,4.181261E3,2.8119999E1,2.9629413E2,9.322747E1,3.2234868E3,2.5163416E1,2.4905256E1,4.9681622E2,1.4689278E4,4.2999214E1,5.6715496E1,4.154984E3,2.627735E1],"tree_param":{"num_deleted":"0","num_feature":"179","num_nodes":"25","size_leaf_vector":"1"}},{"base_weights":[1.0267498E-3,-3.456146E-2,1.5536027E-1,-9.182221E-2,3.6770616E-2,1.411695E-1,5.334506E-1,-5.183445E-1,-7.884804E-2,7.3147014E-2,3.230272E-2,-2.287145E-1,1.5262723E-1,2.9068044E-3,6.237373E-1,-3.195648E-2,1.8838435E-2,-1.3597413E-2,-2.3405408E-3,1.4969011E-2,6.0453743E-4,7.585415E-3,-4.6065975E-2,8.887025E-3,-1.3855033E-3,3.5830837E-2,1.0486779E-2],"categories":[],"categories_nodes":[],"categories_segments":[],"categories_sizes":[],"default_left":[0,0,0,0,0,0,0,0,0,0,0,0,0,0,0,0,0,0,0,0,0,0,0,0,0,0,0],"id":45,"left_children":[1,3,5,7,9,11,13,15,17,-1,19,21,23,-1,25,-1,-1,-1,-1,-1,-1,-1,-1,-1,-1,-1,-1],"loss_changes":[1.2800342E2,7.735745E1,2.335553E1,5.8094795E1,5.3692135E1,1.7878761E1,6.7278137E0,3.3751625E1,6.3067818E1,0E0,4.5386234E1,3.35772E1,1.850309E1,0E0,4.939022E0,0E0,0E0,0E0,0E0,0E0,0E0,0E0,0E0,0E0,0E0,0E0,0E0],"parents":[2147483647,0,0,1,1,2,2,3,3,4,4,5,5,6,6,7,7,8,8,10,10,11,11,12,12,14,14],"right_children":[2,4,6,8,10,12,14,16,18,-1,20,22,24,-1,26,-1,-1,-1,-1,-1,-1,-1,-1,-1,-1,-1,-1],"split_conditions":[1.1072372E0,2.00001E0,5.935791E0,2.00001E0,2.00001E0,2.00001E0,2.00001E0,8.8178796E-1,2.00001E0,7.3147014E-2,2.00001E0,8.242055E-1,2.00001E0,2.9068044E-3,8.178374E-1,-3.195648E-2,1.8838435E-2,-1.3597413E-2,-2.3405408E-3,1.4969011E-2,6.0453743E-4,7.585415E-3,-4.6065975E-2,8.887025E-3,-1.3855033E-3,3.5830837E-2,1.0486779E-2],"split_indices":[6,27,6,136,28,161,165,0,139,0,31,7,53,0,1,0,0,0,0,0,0,0,0,0,0,0,0],"split_type":[0,0,0,0,0,0,0,0,0,0,0,0,0,0,0,0,0,0,0,0,0,0,0,0,0,0,0],"sum_hessian":[2.330335E4,1.8937314E4,4.366034E3,1.050461E4,8.432705E3,4.2094165E3,1.566174E2,3.0895175E2,1.0195658E4,2.5315973E1,8.407389E3,1.2590559E2,4.083511E3,2.5263174E1,1.3135423E2,2.7247098E2,3.6480774E1,1.4497843E3,8.745874E3,5.905219E2,7.816867E3,